{"learner":{"attributes":{"best_iteration":"99","best_ntree_limit":"100","scikit_learn":"{\"n_estimators\": 100, \"objective\": \"reg:squarederror\", \"max_depth\": 6, \"max_leaves\": null, \"max_bin\": null, \"grow_policy\": null, \"learning_rate\": 0.1, \"verbosity\": null, \"booster\": null, \"tree_method\": null, \"gamma\": null, \"min_child_weight\": null, \"max_delta_step\": null, \"subsample\": null, \"sampling_method\": null, \"colsample_bytree\": null, \"colsample_bylevel\": null, \"colsample_bynode\": null, \"reg_alpha\": null, \"reg_lambda\": null, \"scale_pos_weight\": null, \"base_score\": null, \"missing\": NaN, \"num_parallel_tree\": null, \"random_state\": 42, \"n_jobs\": -1, \"monotone_constraints\": null, \"interaction_constraints\": null, \"importance_type\": null, \"gpu_id\": null, \"validate_parameters\": null, \"predictor\": null, \"enable_categorical\": false, \"max_cat_to_onehot\": null, \"eval_metric\": null, \"early_stopping_rounds\": null, \"callbacks\": null, \"_estimator_type\": \"regressor\"}"},"feature_names":["No. of Bedrooms","Area in sq ft","House Type","Postal Code","Location","Outcode"],"feature_types":["int","int","int","int","int","int"],"gradient_booster":{"model":{"gbtree_model_param":{"num_parallel_tree":"1","num_trees":"100","size_leaf_vector":"0"},"tree_info":[0,0,0,0,0,0,0,0,0,0,0,0,0,0,0,0,0,0,0,0,0,0,0,0,0,0,0,0,0,0,0,0,0,0,0,0,0,0,0,0,0,0,0,0,0,0,0,0,0,0,0,0,0,0,0,0,0,0,0,0,0,0,0,0,0,0,0,0,0,0,0,0,0,0,0,0,0,0,0,0,0,0,0,0,0,0,0,0,0,0,0,0,0,0,0,0,0,0,0,0],"trees":[{"base_weights":[1.8436028E6,1.2793096E6,4.1500178E6,8.986279E5,2.0384508E6,3.760227E6,8.631279E6,7.272093E5,1.2438099E6,1.623948E6,2.7009048E6,3.0286328E6,4.833689E6,4.093636E6,1.2776591E7,5.845845E5,8.433099E5,1.058458E6,1.5816105E6,1.3488845E6,1.8458429E6,3.2893572E6,2.05492E6,2.5226338E6,4.0305845E6,8.0108695E6,4.4032535E6,2.1566662E6,4.53647E6,1.0651842E7,1.9675E7,4.7400628E5,6.3117244E5,7.383922E5,1.0491104E6,8.823333E5,1.1038802E6,1.6304346E6,1.0006214E6,1.0490434E6,1.4731365E6,1.3815944E6,1.9861428E6,2.950296E6,4.473869E6,1.4844042E6,2.2784582E6,1.7198979E6,2.837403E6,2.5047302E6,4.9253865E6,4.633333E6,1.275E7,3.940626E6,7.2654165E6,3.6116662E6,1.2908214E7,3.1128956E5,4.829455E5,5.7509394E5,7.3631694E5,6.573882E5,7.978281E5,1.3063771E6,9.942082E5,1.1630875E6,9.645279E5,1.4382126E6,1.7460091E6,5.249996E5,1.115412E6,1.7736344E6,1.2302258E6,1.8044726E6,1.167588E6,2.554551E6,1.6610395E6,3.5639358E6,2.5087495E6,2.6344945E6,5.1065905E6,1.4998775E6,4.2499975E5,2.3061345E6,6.33333E5,1.3402268E6,1.8899712E6,3.6435502E6,2.2580915E6,1.3189996E6,2.6025568E6,6.611481E6,3.5239995E6,1.1249998E6,4.803571E6,3.2249998E6,1.35375E7,3.3009288E6,5.426391E6,8.673235E6,3.3656245E6,3.9949998E6,8.4749975E5],"categories":[],"categories_nodes":[],"categories_segments":[],"categories_sizes":[],"default_left":[1,1,1,1,1,1,1,1,1,1,1,1,1,1,1,1,1,1,1,1,1,1,1,1,1,1,1,0,0,1,0,1,1,1,1,0,1,1,1,0,1,1,1,1,1,1,1,1,1,1,1,1,1,1,1,1,0,0,0,0,0,0,0,0,0,0,0,0,0,0,0,0,0,0,0,0,0,0,0,0,0,0,0,0,0,0,0,0,0,0,0,0,0,0,0,0,0,0,0,0,0,0,0],"id":0,"left_children":[1,3,5,7,9,11,13,15,17,19,21,23,25,27,29,31,33,35,37,39,41,43,45,47,49,51,53,-1,-1,55,-1,57,59,61,63,-1,65,67,69,-1,71,73,75,77,79,81,83,85,87,89,91,93,95,97,99,101,-1,-1,-1,-1,-1,-1,-1,-1,-1,-1,-1,-1,-1,-1,-1,-1,-1,-1,-1,-1,-1,-1,-1,-1,-1,-1,-1,-1,-1,-1,-1,-1,-1,-1,-1,-1,-1,-1,-1,-1,-1,-1,-1,-1,-1,-1,-1],"loss_changes":[3.6193518E15,6.452195E14,9.2301854E14,8.743721E13,2.0073174E14,3.8195627E14,7.5652493E14,1.6065828E13,2.9256243E13,2.5708466E13,1.0195823E14,1.4344922E14,2.42343E14,9.086976E12,1.1288758E14,2.0293553E12,1.1079405E13,1.6019892E12,3.2759528E12,6.278336E12,1.3734903E13,4.624069E13,1.4344788E13,4.6665893E13,1.2419703E14,3.090766E14,2.1103456E14,0E0,0E0,2.5519971E14,0E0,5.0392465E10,1.4339067E12,1.2424535E12,1.2859736E12,0E0,9.573415E11,9.9898255E11,2.879589E11,0E0,8.4751784E12,3.504039E12,3.1236693E13,2.303109E13,2.2624881E13,5.103629E10,3.0014775E12,1.3413216E12,5.9489055E13,1.0910559E12,1.2319912E14,3.5547565E12,2.3849953E13,1.3225734E14,1.02573885E14,2.9718322E12,0E0,0E0,0E0,0E0,0E0,0E0,0E0,0E0,0E0,0E0,0E0,0E0,0E0,0E0,0E0,0E0,0E0,0E0,0E0,0E0,0E0,0E0,0E0,0E0,0E0,0E0,0E0,0E0,0E0,0E0,0E0,0E0,0E0,0E0,0E0,0E0,0E0,0E0,0E0,0E0,0E0,0E0,0E0,0E0,0E0,0E0,0E0],"parents":[2147483647,0,0,1,1,2,2,3,3,4,4,5,5,6,6,7,7,8,8,9,9,10,10,11,11,12,12,13,13,14,14,15,15,16,16,17,17,18,18,19,19,20,20,21,21,22,22,23,23,24,24,25,25,26,26,29,29,31,31,32,32,33,33,34,34,36,36,37,37,38,38,40,40,41,41,42,42,43,43,44,44,45,45,46,46,47,47,48,48,49,49,50,50,51,51,52,52,53,53,54,54,55,55],"right_children":[2,4,6,8,10,12,14,16,18,20,22,24,26,28,30,32,34,36,38,40,42,44,46,48,50,52,54,-1,-1,56,-1,58,60,62,64,-1,66,68,70,-1,72,74,76,78,80,82,84,86,88,90,92,94,96,98,100,102,-1,-1,-1,-1,-1,-1,-1,-1,-1,-1,-1,-1,-1,-1,-1,-1,-1,-1,-1,-1,-1,-1,-1,-1,-1,-1,-1,-1,-1,-1,-1,-1,-1,-1,-1,-1,-1,-1,-1,-1,-1,-1,-1,-1,-1,-1,-1],"split_conditions":[2.414E3,1.391E3,5.618E3,9.98E2,1.7865E3,1.785E3,6.49E2,7.055E2,1.789E3,1.8345E3,3.5E0,3.692E3,2.5E0,6.4395E3,4E0,5.275E2,1.787E3,1.067E3,3.5E0,5.83E2,5.775E2,4E0,1.7605E3,5.72E2,5.925E2,3.056E3,4E0,2.1566662E5,4.53647E5,6.3575E3,1.9675E6,3.51E2,1.7865E3,8.305E2,2.0015E3,8.8233336E4,1.194E3,3.85E2,1.2345E3,1.04904336E5,1.2115E3,3.1E2,1.1875E3,1.9715E3,2.338E3,2.763E3,2.803E3,2.738E3,1.1885E3,5.55E1,1.0245E3,6.2E1,2.5E0,3.6705E3,2.505E3,6.271E3,1.2908214E6,3.1128957E4,4.829455E4,5.7509395E4,7.3631695E4,6.573882E4,7.978281E4,1.3063771E5,9.942082E4,1.1630875E5,9.645279E4,1.4382127E5,1.7460092E5,5.2499965E4,1.115412E5,1.7736344E5,1.2302258E5,1.8044727E5,1.16758805E5,2.5545511E5,1.6610395E5,3.563936E5,2.5087495E5,2.6344947E5,5.1065906E5,1.4998775E5,4.2499977E4,2.3061345E5,6.33333E4,1.3402267E5,1.8899712E5,3.6435503E5,2.2580916E5,1.3189997E5,2.6025567E5,6.611481E5,3.5239997E5,1.1249998E5,4.803571E5,3.2249997E5,1.35375E6,3.3009288E5,5.426391E5,8.673235E5,3.3656247E5,3.9949997E5,8.474998E4],"split_indices":[1,1,1,1,3,3,3,1,3,1,0,1,2,1,2,1,3,1,0,3,3,2,1,3,3,1,2,0,0,1,0,1,3,1,3,0,3,4,1,0,3,3,3,3,3,3,3,1,3,4,3,4,0,1,3,1,0,0,0,0,0,0,0,0,0,0,0,0,0,0,0,0,0,0,0,0,0,0,0,0,0,0,0,0,0,0,0,0,0,0,0,0,0,0,0,0,0,0,0,0,0,0,0],"split_type":[0,0,0,0,0,0,0,0,0,0,0,0,0,0,0,0,0,0,0,0,0,0,0,0,0,0,0,0,0,0,0,0,0,0,0,0,0,0,0,0,0,0,0,0,0,0,0,0,0,0,0,0,0,0,0,0,0,0,0,0,0,0,0,0,0,0,0,0,0,0,0,0,0,0,0,0,0,0,0,0,0,0,0,0,0,0,0,0,0,0,0,0,0,0,0,0,0,0,0,0,0,0,0],"sum_hessian":[2.784E3,2.238E3,5.46E2,1.492E3,7.46E2,5.04E2,4.2E1,9.99E2,4.93E2,4.61E2,2.85E2,3.02E2,2.02E2,2.1E1,2.1E1,4.51E2,5.48E2,3.21E2,1.72E2,2.09E2,2.52E2,1.47E2,1.38E2,2.03E2,9.9E1,2.2E1,1.8E2,5E0,1.6E1,1.8E1,3E0,1.37E2,3.14E2,3.66E2,1.82E2,7E1,2.51E2,1.57E2,1.5E1,6.4E1,1.45E2,6.1E1,1.91E2,1.17E2,3E1,4.1E1,9.7E1,5.9E1,1.44E2,3.8E1,6.1E1,1.4E1,8E0,1.57E2,2.3E1,5E0,1.3E1,9E0,1.28E2,2.09E2,1.05E2,1.6E2,2.06E2,2.8E1,1.54E2,1.71E2,8E1,6.4E1,9.3E1,4E0,1.1E1,6.2E1,8.3E1,1.8E1,4.3E1,6.7E1,1.24E2,4.6E1,7.1E1,9E0,2.1E1,4E1,1E0,9.5E1,2E0,2.1E1,3.8E1,5.8E1,8.6E1,4E0,3.4E1,2.6E1,3.5E1,1E0,1.3E1,1E0,7E0,1.12E2,4.5E1,1.6E1,7E0,4E0,1E0],"tree_param":{"num_deleted":"0","num_feature":"6","num_nodes":"103","size_leaf_vector":"0"}},{"base_weights":[1.6647858E6,1.220728E6,4.087271E6,8.0968244E5,1.9304271E6,3.6585385E6,7.8707525E6,6.550745E5,1.1210149E6,1.5337372E6,2.5633735E6,7.6181505E6,3.411881E6,3.7146958E6,1.1669048E7,5.2168172E5,7.560223E5,9.5354694E5,1.4262382E6,1.2941514E6,1.8343442E6,2.2567298E6,4.4141725E6,3.9033188E6,1.0388567E7,1.9832171E6,3.795553E6,1.9769441E6,4.1095082E6,9.680082E6,1.8199376E7,4.4365903E5,5.741988E5,6.61872E5,9.364625E5,8.547335E5,1.02771225E6,1.4694065E6,9.108118E5,1.0362007E6,1.3980442E6,1.2424566E6,2.000795E6,2.832133E6,1.9321466E6,3.573214E6,7.084303E6,5.805012E5,4.1775505E6,5.167811E6,1.2352969E7,1.4412502E6,2.2631345E6,5.275899E6,3.3846505E6,4.8177535E6,1.2778344E7,3.5469572E5,4.6207322E5,5.2610606E5,6.6476056E5,5.774389E5,7.1064144E5,9.9980406E5,7.5607475E5,8.6017075E5,3.124605E5,1.0923516E6,8.847648E5,1.4758601E6,2.2808912E5,4.8299966E5,1.01316594E6,1.2525802E6,8.7573044E5,1.6840774E6,1.1917198E6,2.728762E6,1.6263785E6,3.119604E6,2.0108396E6,2.538706E6,1.7847274E6,2.365639E6,4.1287488E6,8.236103E6,3.2975778E6,9.555012E5,4.429389E6,5.9573925E5,1.5131315E6,1.2134796E6,2.326648E6,5.7262075E6,2.959956E6,2.6523025E6,4.4082105E6,5.592719E6,1.403583E6],"categories":[],"categories_nodes":[],"categories_segments":[],"categories_sizes":[],"default_left":[1,1,1,1,1,1,1,1,1,1,1,1,1,1,1,1,1,1,1,1,1,1,1,1,1,1,1,0,0,1,0,1,1,1,1,1,1,1,1,1,1,0,1,1,1,1,1,0,1,0,0,1,1,1,1,1,0,0,0,0,0,0,0,0,0,0,0,0,0,0,0,0,0,0,0,0,0,0,0,0,0,0,0,0,0,0,0,0,0,0,0,0,0,0,0,0,0,0,0],"id":1,"left_children":[1,3,5,7,9,11,13,15,17,19,21,23,25,27,29,31,33,35,37,39,41,43,45,47,49,51,53,-1,-1,55,-1,57,59,61,63,65,67,69,71,73,75,-1,77,79,81,83,85,-1,87,-1,-1,89,91,93,95,97,-1,-1,-1,-1,-1,-1,-1,-1,-1,-1,-1,-1,-1,-1,-1,-1,-1,-1,-1,-1,-1,-1,-1,-1,-1,-1,-1,-1,-1,-1,-1,-1,-1,-1,-1,-1,-1,-1,-1,-1,-1,-1,-1],"loss_changes":[2.9909003E15,6.8543464E14,6.703306E14,7.113043E13,2.1275335E14,3.539316E14,6.354482E14,1.307133E13,2.389089E13,3.6013435E13,1.7789285E14,1.8586605E14,1.9418755E14,6.9696246E12,1.095775E14,1.5235725E12,9.012653E12,1.4813275E12,2.5109117E12,6.5911306E12,2.056786E13,4.7942975E13,7.7977816E13,7.598351E12,5.923015E13,8.874745E12,1.5793507E14,0E0,0E0,2.246676E14,0E0,1.2933975E11,7.652424E11,1.1379147E12,1.4378745E12,1.5581E11,6.8749676E11,9.291222E11,2.1125451E11,2.0281054E12,1.044536E13,0E0,4.489583E13,1.7572859E13,1.2101003E13,1.505433E13,1.6456301E13,0E0,3.88208E12,0E0,0E0,9.218577E11,5.7668325E11,4.6666967E13,1.5996713E14,1.5962951E13,0E0,0E0,0E0,0E0,0E0,0E0,0E0,0E0,0E0,0E0,0E0,0E0,0E0,0E0,0E0,0E0,0E0,0E0,0E0,0E0,0E0,0E0,0E0,0E0,0E0,0E0,0E0,0E0,0E0,0E0,0E0,0E0,0E0,0E0,0E0,0E0,0E0,0E0,0E0,0E0,0E0,0E0,0E0],"parents":[2147483647,0,0,1,1,2,2,3,3,4,4,5,5,6,6,7,7,8,8,9,9,10,10,11,11,12,12,13,13,14,14,15,15,16,16,17,17,18,18,19,19,20,20,21,21,22,22,23,23,24,24,25,25,26,26,29,29,31,31,32,32,33,33,34,34,35,35,36,36,37,37,38,38,39,39,40,40,42,42,43,43,44,44,45,45,46,46,48,48,51,51,52,52,53,53,54,54,55,55],"right_children":[2,4,6,8,10,12,14,16,18,20,22,24,26,28,30,32,34,36,38,40,42,44,46,48,50,52,54,-1,-1,56,-1,58,60,62,64,66,68,70,72,74,76,-1,78,80,82,84,86,-1,88,-1,-1,90,92,94,96,98,-1,-1,-1,-1,-1,-1,-1,-1,-1,-1,-1,-1,-1,-1,-1,-1,-1,-1,-1,-1,-1,-1,-1,-1,-1,-1,-1,-1,-1,-1,-1,-1,-1,-1,-1,-1,-1,-1,-1,-1,-1,-1,-1],"split_conditions":[2.645E3,1.391E3,5.618E3,9.98E2,1.7865E3,2.5E0,6.49E2,6.975E2,1.789E3,2.008E3,4E0,3.056E3,5.905E2,6.4395E3,4E0,5.545E2,1.787E3,1.1625E3,3.5E0,5.79E2,5.67E2,2.5E0,2.3375E3,1E0,1.847E3,3.447E3,4.5E0,1.9769442E5,4.1095084E5,6.699E3,1.8199376E6,2.47E2,1.7795E3,8.085E2,2.56E3,1.161E3,1.194E3,2.824E3,1.2345E3,3.13E2,1.209E3,1.24245664E5,1.1055E3,2.4895E3,2.004E3,2.338E3,2.4985E3,5.805012E4,6E1,5.167811E5,1.2352969E6,1.555E2,5.55E1,2.5675E3,3.718E3,2.147E3,1.2778344E6,3.5469574E4,4.6207324E4,5.2610605E4,6.6476055E4,5.7743887E4,7.106415E4,9.998041E4,7.560748E4,8.601708E4,3.124605E4,1.09235164E5,8.8476484E4,1.4758602E5,2.2808912E4,4.8299965E4,1.0131659E5,1.2525802E5,8.757305E4,1.6840773E5,1.1917198E5,2.7287622E5,1.6263786E5,3.119604E5,2.0108397E5,2.5387061E5,1.7847273E5,2.365639E5,4.1287488E5,8.236103E5,3.2975778E5,9.555012E4,4.429389E5,5.9573926E4,1.5131316E5,1.2134796E5,2.326648E5,5.7262075E5,2.959956E5,2.6523025E5,4.4082106E5,5.5927194E5,1.403583E5],"split_indices":[1,1,1,1,3,2,3,1,3,1,2,1,3,1,2,1,3,1,0,3,3,2,1,2,3,1,0,0,0,1,0,3,3,1,3,1,3,3,1,3,3,0,3,3,3,3,3,0,4,0,0,3,4,3,1,3,0,0,0,0,0,0,0,0,0,0,0,0,0,0,0,0,0,0,0,0,0,0,0,0,0,0,0,0,0,0,0,0,0,0,0,0,0,0,0,0,0,0,0],"split_type":[0,0,0,0,0,0,0,0,0,0,0,0,0,0,0,0,0,0,0,0,0,0,0,0,0,0,0,0,0,0,0,0,0,0,0,0,0,0,0,0,0,0,0,0,0,0,0,0,0,0,0,0,0,0,0,0,0,0,0,0,0,0,0,0,0,0,0,0,0,0,0,0,0,0,0,0,0,0,0,0,0,0,0,0,0,0,0,0,0,0,0,0,0,0,0,0,0,0,0],"sum_hessian":[2.784E3,2.354E3,4.3E2,1.492E3,8.62E2,3.88E2,4.2E1,9.99E2,4.93E2,5.32E2,3.3E2,2.1E1,3.67E2,2.1E1,2.1E1,4.33E2,5.66E2,3.21E2,1.72E2,2.99E2,2.33E2,2.85E2,4.5E1,1E1,1.1E1,7.9E1,2.88E2,5E0,1.6E1,1.8E1,3E0,1.78E2,2.55E2,3.75E2,1.91E2,1.43E2,1.78E2,1.57E2,1.5E1,8.9E1,2.1E2,5.3E1,1.8E2,1E2,1.85E2,3.6E1,9E0,1E0,9E0,4E0,7E0,2.9E1,5E1,6E1,2.28E2,8E0,1E1,3.4E1,1.44E2,1.71E2,8.4E1,1.42E2,2.33E2,1.38E2,5.3E1,1.41E2,2E0,1.18E2,6E1,1.56E2,1E0,4E0,1.1E1,3.5E1,5.4E1,8.5E1,1.25E2,5.9E1,1.21E2,7.2E1,2.8E1,3.3E1,1.52E2,1.3E1,2.3E1,6E0,3E0,1E0,8E0,3E0,2.6E1,4E0,4.6E1,4.9E1,1.1E1,1.35E2,9.3E1,6E0,2E0],"tree_param":{"num_deleted":"0","num_feature":"6","num_nodes":"99","size_leaf_vector":"0"}},{"base_weights":[1.5032776E6,1.1007565E6,3.6991802E6,7.294778E5,1.7417974E6,3.3042225E6,7.1861435E6,6.0444994E5,1.04535575E6,1.3823526E6,2.315339E6,6.9630905E6,3.0765068E6,3.3708918E6,1.0674753E7,5.1164853E5,7.381278E5,8.898818E5,1.3128891E6,1.195204E6,1.7058518E6,2.0343624E6,4.011947E6,3.5672178E6,9.495716E6,1.7919566E6,3.4214462E6,1.8121988E6,3.7227308E6,8.816151E6,1.683442E7,4.1749738E5,5.7075156E5,6.484078E5,9.2187744E5,9.219089E5,7.1388244E5,1.359469E6,8.290817E5,9.4072806E5,1.2910774E6,2.717267E6,1.5797934E6,2.479089E6,1.6786512E6,3.2334448E6,6.4912095E6,5.514761E5,3.8136442E6,4.754386E6,1.1272083E7,1.3041549E6,2.0437624E6,4.762549E6,3.0492685E6,4.413715E6,1.1616676E7,3.9031922E5,4.8274012E5,5.0828912E5,6.866887E5,5.733093E5,6.7931394E5,1.225222E6,8.5858194E5,9.4666175E5,6.751594E5,1.3662289E6,2.1668466E5,4.4435966E5,9.202924E5,1.1427492E6,7.9710256E5,1.5394474E6,1.0905976E6,1.3322654E6,3.5295792E6,1.0925889E6,1.7170739E6,2.3057022E6,3.7955208E6,1.0535091E6,1.8552652E6,2.1459725E6,3.7330768E6,7.271169E6,2.2475818E6,9.077261E5,4.0356655E6,5.510588E5,1.3674226E6,9.751455E5,2.0902355E6,5.1650395E6,2.6886268E6,2.6856018E6,4.8065E6,5.113343E6,1.3100109E6],"categories":[],"categories_nodes":[],"categories_segments":[],"categories_sizes":[],"default_left":[1,1,1,1,1,1,1,1,1,1,1,1,1,1,1,1,1,1,1,1,1,1,1,1,1,1,1,0,0,1,0,1,1,1,1,1,0,1,1,1,1,1,1,1,1,1,1,0,1,0,0,1,1,1,1,1,0,0,0,0,0,0,0,0,0,0,0,0,0,0,0,0,0,0,0,0,0,0,0,0,0,0,0,0,0,0,0,0,0,0,0,0,0,0,0,0,0,0,0],"id":2,"left_children":[1,3,5,7,9,11,13,15,17,19,21,23,25,27,29,31,33,35,37,39,41,43,45,47,49,51,53,-1,-1,55,-1,57,59,61,63,65,-1,67,69,71,73,75,77,79,81,83,85,-1,87,-1,-1,89,91,93,95,97,-1,-1,-1,-1,-1,-1,-1,-1,-1,-1,-1,-1,-1,-1,-1,-1,-1,-1,-1,-1,-1,-1,-1,-1,-1,-1,-1,-1,-1,-1,-1,-1,-1,-1,-1,-1,-1,-1,-1,-1,-1,-1,-1],"loss_changes":[2.4575814E15,5.5923078E14,5.698305E14,5.833203E13,1.7471229E14,3.0268567E14,5.3634303E14,1.292104E13,1.6384562E13,3.0230262E13,1.496282E14,1.5533716E14,1.5692683E14,5.3186795E12,1.0344966E14,3.3007998E12,6.606633E12,8.6377497E11,2.3208594E12,7.104983E12,2.0314256E13,4.1082033E13,6.7796126E13,6.071616E12,4.7476233E13,7.16112E12,1.2972573E14,0E0,0E0,1.8298077E14,0E0,2.5310108E11,2.4607562E12,2.9987596E11,1.6552905E12,7.351105E11,0E0,7.700071E11,1.5251118E11,1.9036016E12,1.0520422E13,1.779873E13,9.761689E12,1.978007E13,1.5931711E13,1.2092346E13,1.675601E13,0E0,2.788474E12,0E0,0E0,6.7587015E11,4.944581E11,3.703188E13,1.3343336E14,1.2844418E13,0E0,0E0,0E0,0E0,0E0,0E0,0E0,0E0,0E0,0E0,0E0,0E0,0E0,0E0,0E0,0E0,0E0,0E0,0E0,0E0,0E0,0E0,0E0,0E0,0E0,0E0,0E0,0E0,0E0,0E0,0E0,0E0,0E0,0E0,0E0,0E0,0E0,0E0,0E0,0E0,0E0,0E0,0E0],"parents":[2147483647,0,0,1,1,2,2,3,3,4,4,5,5,6,6,7,7,8,8,9,9,10,10,11,11,12,12,13,13,14,14,15,15,16,16,17,17,18,18,19,19,20,20,21,21,22,22,23,23,24,24,25,25,26,26,29,29,31,31,32,32,33,33,34,34,35,35,37,37,38,38,39,39,40,40,41,41,42,42,43,43,44,44,45,45,46,46,48,48,51,51,52,52,53,53,54,54,55,55],"right_children":[2,4,6,8,10,12,14,16,18,20,22,24,26,28,30,32,34,36,38,40,42,44,46,48,50,52,54,-1,-1,56,-1,58,60,62,64,66,-1,68,70,72,74,76,78,80,82,84,86,-1,88,-1,-1,90,92,94,96,98,-1,-1,-1,-1,-1,-1,-1,-1,-1,-1,-1,-1,-1,-1,-1,-1,-1,-1,-1,-1,-1,-1,-1,-1,-1,-1,-1,-1,-1,-1,-1,-1,-1,-1,-1,-1,-1,-1,-1,-1,-1,-1,-1],"split_conditions":[2.645E3,1.391E3,5.618E3,1.044E3,1.7865E3,2.5E0,6.49E2,8.015E2,1.789E3,2.1265E3,4E0,3.056E3,5.905E2,6.4395E3,4E0,5.955E2,1.8285E3,1.47E3,3.5E0,5.78E2,2.5E0,3.5E0,2.3375E3,1E0,1.847E3,3.447E3,4.5E0,1.8121988E5,3.722731E5,6.699E3,1.683442E6,1.789E3,1.7855E3,5.775E2,2.0015E3,3.5E0,7.138824E4,2.824E3,1.2345E3,3.13E2,1.2465E3,7.255E2,5.695E2,2.2325E3,1.7605E3,2.338E3,5.255E2,5.5147613E4,6E1,4.754386E5,1.1272084E6,1.555E2,3.65E1,2.5675E3,4.4535E3,2.147E3,1.1616676E6,3.903192E4,4.827401E4,5.0828914E4,6.866887E4,5.7330934E4,6.79314E4,1.225222E5,8.5858195E4,9.466618E4,6.751594E4,1.3662289E5,2.1668467E4,4.4435965E4,9.202924E4,1.1427493E5,7.971026E4,1.5394473E5,1.09059766E5,1.3322655E5,3.5295794E5,1.0925889E5,1.7170739E5,2.3057023E5,3.795521E5,1.05350914E5,1.8552653E5,2.1459725E5,3.733077E5,7.2711694E5,2.2475817E5,9.077262E4,4.0356656E5,5.5105883E4,1.3674227E5,9.7514555E4,2.0902355E5,5.1650397E5,2.688627E5,2.685602E5,4.8065E5,5.113343E5,1.31001086E5],"split_indices":[1,1,1,1,3,2,3,1,3,1,2,1,3,1,2,1,3,3,0,3,2,0,1,2,3,1,0,0,0,1,0,3,3,3,3,0,0,3,1,3,3,3,3,1,1,3,4,0,4,0,0,3,3,3,1,3,0,0,0,0,0,0,0,0,0,0,0,0,0,0,0,0,0,0,0,0,0,0,0,0,0,0,0,0,0,0,0,0,0,0,0,0,0,0,0,0,0,0,0],"split_type":[0,0,0,0,0,0,0,0,0,0,0,0,0,0,0,0,0,0,0,0,0,0,0,0,0,0,0,0,0,0,0,0,0,0,0,0,0,0,0,0,0,0,0,0,0,0,0,0,0,0,0,0,0,0,0,0,0,0,0,0,0,0,0,0,0,0,0,0,0,0,0,0,0,0,0,0,0,0,0,0,0,0,0,0,0,0,0,0,0,0,0,0,0,0,0,0,0,0,0],"sum_hessian":[2.784E3,2.354E3,4.3E2,1.492E3,8.62E2,3.88E2,4.2E1,1.071E3,4.21E2,5.32E2,3.3E2,2.1E1,3.67E2,2.1E1,2.1E1,6.35E2,4.36E2,2.69E2,1.52E2,3.4E2,1.92E2,2.85E2,4.5E1,1E1,1.1E1,7.9E1,2.88E2,5E0,1.6E1,1.8E1,3E0,2.48E2,3.87E2,2.96E2,1.4E2,2.24E2,4.5E1,1.37E2,1.5E1,9.6E1,2.44E2,1.9E1,1.73E2,1.24E2,1.61E2,3.6E1,9E0,1E0,9E0,4E0,7E0,2.9E1,5E1,6E1,2.28E2,8E0,1E1,1.8E2,6.8E1,2.55E2,1.32E2,9.2E1,2.04E2,2.1E1,1.19E2,2.01E2,2.3E1,1.36E2,1E0,4E0,1.1E1,3.7E1,5.9E1,1.06E2,1.38E2,8E0,1.1E1,4E1,1.33E2,1.12E2,1.2E1,3.7E1,1.24E2,1.3E1,2.3E1,7E0,2E0,1E0,8E0,3E0,2.6E1,3E0,4.7E1,4.9E1,1.1E1,1.91E2,3.7E1,6E0,2E0],"tree_param":{"num_deleted":"0","num_feature":"6","num_nodes":"99","size_leaf_vector":"0"}},{"base_weights":[1.3576032E6,9.8422094E5,3.303162E6,6.6813075E5,1.5819311E6,2.9499308E6,6.5615045E6,5.450112E5,9.562827E5,1.2485952E6,2.1275685E6,6.212637E6,2.737777E6,3.0589612E6,9.765798E6,4.2545122E5,6.307421E5,7.992419E5,1.2118489E6,1.113361E6,1.5459072E6,1.8587669E6,3.7221552E6,3.4574545E6,8.679699E6,1.5801251E6,3.0382128E6,1.6611821E6,3.3723562E6,8.0294835E6,1.557184E7,3.4232728E5,4.6051675E5,5.506727E5,7.928915E5,7.636299E5,9.879488E5,1.1434045E6,1.6748555E6,8.70135E5,1.1992716E6,2.545794E6,1.4285725E6,2.305146E6,1.512412E6,2.961174E6,5.937276E6,1.4217452E6,3.9259928E6,4.374035E6,1.0285776E7,1.1258358E6,1.825279E6,2.5784308E6,3.868388E6,4.043714E6,1.0560615E7,4.76456E6,1.758608E7,2.059331E5,3.5024678E5,4.203204E5,5.358065E5,4.8950775E5,6.017786E5,1.0659415E6,7.3396406E5,5.764778E5,8.2662025E5,1.1136665E6,7.140534E5,1.4365232E6,1.030526E6,1.7364392E6,2.5238181E5,1.1006038E6,7.236343E5,1.4604271E6,1.0334507E6,1.1802469E6,3.3250202E6,9.9640475E5,1.5565846E6,2.14761E6,3.4521052E6,9.619289E5,1.646604E6,1.8825741E6,3.4639298E6,6.978674E6,2.6305112E6,2.0114735E6,1.02926544E6,9.93786E5,1.8748999E6,2.3197208E6,4.764964E6,4.74334E6,3.2435208E6,4.6750565E6,1.2226768E6,1.0992208E7,3.122338E6],"categories":[],"categories_nodes":[],"categories_segments":[],"categories_sizes":[],"default_left":[1,1,1,1,1,1,1,1,1,1,1,1,1,1,1,1,1,1,1,1,1,1,1,1,1,1,1,0,0,1,1,1,1,1,1,1,1,1,1,1,1,1,1,1,1,1,1,0,0,0,0,1,1,1,1,1,1,0,0,0,0,0,0,0,0,0,0,0,0,0,0,0,0,0,0,0,0,0,0,0,0,0,0,0,0,0,0,0,0,0,0,0,0,0,0,0,0,0,0,0,0,0,0],"id":3,"left_children":[1,3,5,7,9,11,13,15,17,19,21,23,25,27,29,31,33,35,37,39,41,43,45,47,49,51,53,-1,-1,55,57,59,61,63,65,67,69,71,73,75,77,79,81,83,85,87,89,-1,-1,-1,-1,91,93,95,97,99,101,-1,-1,-1,-1,-1,-1,-1,-1,-1,-1,-1,-1,-1,-1,-1,-1,-1,-1,-1,-1,-1,-1,-1,-1,-1,-1,-1,-1,-1,-1,-1,-1,-1,-1,-1,-1,-1,-1,-1,-1,-1,-1,-1,-1,-1,-1],"loss_changes":[2.0198764E15,4.4066203E14,4.9626898E14,5.3794264E13,1.4430298E14,2.6402238E14,4.5272324E14,1.0750404E13,1.7372807E13,1.8543052E13,1.2381277E14,1.3312325E14,1.2840664E14,4.0351386E12,9.675045E13,1.1598341E12,7.664889E12,1.16756E12,3.535664E12,6.2699476E12,1.4547994E13,3.7174955E13,5.49023E13,6.8177405E12,3.7992475E13,6.966068E12,1.0568062E14,0E0,0E0,1.4897752E14,3.2839723E12,7.693612E10,7.280934E11,1.0214221E12,2.5000317E12,2.4117248E12,6.5098954E11,3.5819188E12,1.3137818E12,2.4111292E12,9.576804E12,1.2036705E13,6.249513E12,1.3003886E13,9.570529E12,1.1916152E13,1.6079082E13,0E0,0E0,0E0,0E0,5.809782E11,2.4098793E11,1.00950925E14,4.256809E13,1.031329E13,9.9213745E11,0E0,0E0,0E0,0E0,0E0,0E0,0E0,0E0,0E0,0E0,0E0,0E0,0E0,0E0,0E0,0E0,0E0,0E0,0E0,0E0,0E0,0E0,0E0,0E0,0E0,0E0,0E0,0E0,0E0,0E0,0E0,0E0,0E0,0E0,0E0,0E0,0E0,0E0,0E0,0E0,0E0,0E0,0E0,0E0,0E0,0E0],"parents":[2147483647,0,0,1,1,2,2,3,3,4,4,5,5,6,6,7,7,8,8,9,9,10,10,11,11,12,12,13,13,14,14,15,15,16,16,17,17,18,18,19,19,20,20,21,21,22,22,23,23,24,24,25,25,26,26,29,29,30,30,31,31,32,32,33,33,34,34,35,35,36,36,37,37,38,38,39,39,40,40,41,41,42,42,43,43,44,44,45,45,46,46,51,51,52,52,53,53,54,54,55,55,56,56],"right_children":[2,4,6,8,10,12,14,16,18,20,22,24,26,28,30,32,34,36,38,40,42,44,46,48,50,52,54,-1,-1,56,58,60,62,64,66,68,70,72,74,76,78,80,82,84,86,88,90,-1,-1,-1,-1,92,94,96,98,100,102,-1,-1,-1,-1,-1,-1,-1,-1,-1,-1,-1,-1,-1,-1,-1,-1,-1,-1,-1,-1,-1,-1,-1,-1,-1,-1,-1,-1,-1,-1,-1,-1,-1,-1,-1,-1,-1,-1,-1,-1,-1,-1,-1,-1,-1,-1],"split_conditions":[2.606E3,1.4475E3,5.618E3,1.0485E3,1.7865E3,2.5E0,6.49E2,7.055E2,1.789E3,2.1795E3,4E0,3.056E3,5.72E2,6.4395E3,4E0,5.275E2,1.787E3,4E0,4E0,5.69E2,2.5E0,3.5E0,2.3375E3,6.33E2,1.847E3,3.3735E3,3.71E3,1.6611822E5,3.3723562E5,6.699E3,4.5E0,3.51E2,1.7865E3,8.615E2,1.986E3,5.76E2,5.5E0,2.004E3,3.5E0,3.1E2,1.1905E3,7.255E2,5.695E2,2.2325E3,1.7605E3,2.338E3,2.4985E3,1.4217453E5,3.9259928E5,4.374035E5,1.0285776E6,3.5E0,5.55E1,4E0,5.5E0,2.147E3,9.5E0,4.76456E5,1.758608E6,2.059331E4,3.502468E4,4.2032043E4,5.3580652E4,4.8950777E4,6.0177863E4,1.0659415E5,7.339641E4,5.764778E4,8.266202E4,1.1136665E5,7.1405336E4,1.4365233E5,1.030526E5,1.7364392E5,2.5238182E4,1.10060375E5,7.236343E4,1.4604272E5,1.0334507E5,1.1802469E5,3.3250203E5,9.964048E4,1.5565847E5,2.14761E5,3.4521053E5,9.619289E4,1.646604E5,1.8825742E5,3.4639297E5,6.9786744E5,2.6305112E5,2.0114736E5,1.0292655E5,9.93786E4,1.8748998E5,2.3197208E5,4.764964E5,4.74334E5,3.243521E5,4.6750566E5,1.2226768E5,1.0992209E6,3.122338E5],"split_indices":[1,1,1,1,3,2,3,1,3,1,2,1,3,1,2,1,3,2,2,3,2,0,1,3,3,1,1,0,0,1,0,1,3,1,3,3,2,3,0,3,3,3,3,1,1,3,3,0,0,0,0,0,4,2,0,3,0,0,0,0,0,0,0,0,0,0,0,0,0,0,0,0,0,0,0,0,0,0,0,0,0,0,0,0,0,0,0,0,0,0,0,0,0,0,0,0,0,0,0,0,0,0,0],"split_type":[0,0,0,0,0,0,0,0,0,0,0,0,0,0,0,0,0,0,0,0,0,0,0,0,0,0,0,0,0,0,0,0,0,0,0,0,0,0,0,0,0,0,0,0,0,0,0,0,0,0,0,0,0,0,0,0,0,0,0,0,0,0,0,0,0,0,0,0,0,0,0,0,0,0,0,0,0,0,0,0,0,0,0,0,0,0,0,0,0,0,0,0,0,0,0,0,0,0,0,0,0,0,0],"sum_hessian":[2.784E3,2.337E3,4.47E2,1.53E3,8.07E2,4.05E2,4.2E1,1.074E3,4.56E2,5.03E2,3.04E2,2.3E1,3.82E2,2.1E1,2.1E1,4.51E2,6.23E2,2.85E2,1.71E2,3.49E2,1.54E2,2.62E2,4.2E1,1.2E1,1.1E1,8E1,3.02E2,5E0,1.6E1,1.8E1,3E0,1.37E2,3.14E2,4.2E2,2.03E2,2.44E2,4.1E1,1.52E2,1.9E1,9.4E1,2.55E2,1.4E1,1.4E2,1.12E2,1.5E2,3.3E1,9E0,3E0,9E0,4E0,7E0,3E1,5E1,1.97E2,1.05E2,8E0,1E1,1E0,2E0,9E0,1.28E2,2.09E2,1.05E2,1.96E2,2.24E2,3.3E1,1.7E2,6.4E1,1.8E2,2.6E1,1.5E1,3.9E1,1.13E2,1.8E1,1E0,3.4E1,6E1,9.6E1,1.59E2,6E0,8E0,3.4E1,1.06E2,1.01E2,1.1E1,3.1E1,1.19E2,1.2E1,2.1E1,6E0,3E0,1E0,2.9E1,4E0,4.6E1,1.78E2,1.9E1,4.1E1,6.4E1,6E0,2E0,9E0,1E0],"tree_param":{"num_deleted":"0","num_feature":"6","num_nodes":"103","size_leaf_vector":"0"}},{"base_weights":[1.2266909E6,8.953128E5,3.034507E6,6.021074E5,1.4383458E6,2.697179E6,6.0155785E6,4.909197E5,8.623364E5,1.1401582E6,1.927504E6,5.8134975E6,2.503548E6,2.775945E6,8.981776E6,4.1391075E5,6.011169E5,7.204474E5,1.0932546E6,9.8107675E5,1.3837926E6,1.6874006E6,3.3847205E6,2.9718385E6,7.9338935E6,1.4471594E6,2.7781005E6,1.5227504E6,3.054958E6,7.331863E6,1.4573422E7,3.4052706E5,4.650741E5,5.265313E5,7.5884156E5,6.878396E5,8.935057E5,1.283834E6,9.624803E5,7.729947E5,1.0570862E6,2.2580858E6,1.2801131E6,2.1730078E6,1.414143E6,2.6807818E6,5.43964E6,4.5281506E5,3.1784595E6,4.024112E6,9.38577E6,1.0966522E6,1.7069522E6,3.9404348E6,2.452697E6,2.430943E6,8.908553E6,3.1484962E5,3.9805053E5,4.146044E5,5.626699E5,4.735717E5,5.648672E5,6.094472E5,8.712182E5,5.1971694E5,7.4441494E5,1.0064246E6,6.471109E5,9.153003E5,1.4682411E6,1.065884E6,7.318095E5,9.60033E5,6.489722E5,1.2910256E6,8.863648E5,1.1148894E6,2.9273092E6,8.9453575E5,1.3893969E6,1.9089222E6,2.874722E6,2.1808482E6,1.3339274E6,3.0448922E6,1.502427E6,6.1330115E6,1.7774368E6,7.9125256E5,3.3557878E6,9.8605456E5,1.9845411E6,8.054478E5,1.7544289E6,4.2896255E6,2.1280035E6,2.1181822E6,3.8996165E6,2.673807E6,6.0831125E5],"categories":[],"categories_nodes":[],"categories_segments":[],"categories_sizes":[],"default_left":[1,1,1,1,1,1,1,1,1,1,1,1,1,1,1,1,1,1,1,1,1,1,1,1,1,1,1,0,0,1,0,1,1,1,1,1,1,1,1,1,1,1,1,1,1,1,1,0,1,0,0,1,1,1,1,1,0,0,0,0,0,0,0,0,0,0,0,0,0,0,0,0,0,0,0,0,0,0,0,0,0,0,0,0,0,0,0,0,0,0,0,0,0,0,0,0,0,0,0,0,0],"id":4,"left_children":[1,3,5,7,9,11,13,15,17,19,21,23,25,27,29,31,33,35,37,39,41,43,45,47,49,51,53,-1,-1,55,-1,57,59,61,63,65,67,69,71,73,75,77,79,81,83,85,87,-1,89,-1,-1,91,93,95,97,99,-1,-1,-1,-1,-1,-1,-1,-1,-1,-1,-1,-1,-1,-1,-1,-1,-1,-1,-1,-1,-1,-1,-1,-1,-1,-1,-1,-1,-1,-1,-1,-1,-1,-1,-1,-1,-1,-1,-1,-1,-1,-1,-1,-1,-1],"loss_changes":[1.6656949E15,3.7409742E14,4.171879E14,4.3875037E13,1.1813764E14,2.2017452E14,3.882711E14,8.873822E12,1.4185874E13,1.8602644E13,1.0310203E14,1.0898144E14,1.0271226E14,3.0405349E12,9.611573E13,2.2295242E12,4.776591E12,9.993181E11,3.051071E12,4.1649774E12,1.5329275E13,3.2622223E13,4.761864E13,4.2860586E12,3.0348843E13,5.230683E12,1.0039942E14,0E0,0E0,1.2516112E14,0E0,2.6609294E11,1.5990448E12,3.4562743E11,1.802628E12,1.9434559E12,5.172835E11,3.2094479E12,1.7483117E12,1.4182955E12,7.9616446E12,1.2037451E13,6.4261435E12,1.2117076E13,7.853717E12,1.0013028E13,1.4491622E13,0E0,1.577914E12,0E0,0E0,1.5782747E12,4.273157E11,3.011054E13,1.0306351E14,1.02940384E12,0E0,0E0,0E0,0E0,0E0,0E0,0E0,0E0,0E0,0E0,0E0,0E0,0E0,0E0,0E0,0E0,0E0,0E0,0E0,0E0,0E0,0E0,0E0,0E0,0E0,0E0,0E0,0E0,0E0,0E0,0E0,0E0,0E0,0E0,0E0,0E0,0E0,0E0,0E0,0E0,0E0,0E0,0E0,0E0,0E0],"parents":[2147483647,0,0,1,1,2,2,3,3,4,4,5,5,6,6,7,7,8,8,9,9,10,10,11,11,12,12,13,13,14,14,15,15,16,16,17,17,18,18,19,19,20,20,21,21,22,22,23,23,24,24,25,25,26,26,29,29,31,31,32,32,33,33,34,34,35,35,36,36,37,37,38,38,39,39,40,40,41,41,42,42,43,43,44,44,45,45,46,46,48,48,51,51,52,52,53,53,54,54,55,55],"right_children":[2,4,6,8,10,12,14,16,18,20,22,24,26,28,30,32,34,36,38,40,42,44,46,48,50,52,54,-1,-1,56,-1,58,60,62,64,66,68,70,72,74,76,78,80,82,84,86,88,-1,90,-1,-1,92,94,96,98,100,-1,-1,-1,-1,-1,-1,-1,-1,-1,-1,-1,-1,-1,-1,-1,-1,-1,-1,-1,-1,-1,-1,-1,-1,-1,-1,-1,-1,-1,-1,-1,-1,-1,-1,-1,-1,-1,-1,-1,-1,-1,-1,-1,-1,-1],"split_conditions":[2.645E3,1.4475E3,5.618E3,1.0485E3,1.7865E3,2.5E0,6.49E2,8.015E2,1.789E3,2.102E3,4E0,3.056E3,5.72E2,6.4395E3,4E0,6.035E2,1.8515E3,4E0,2.5E0,5.69E2,2.5E0,2.5E0,2.3375E3,1E0,1.847E3,3.6325E3,4.5E0,1.5227505E5,3.054958E5,6.3575E3,1.4573422E6,1.789E3,1.7855E3,7.615E2,4.515E2,5.76E2,5.5E0,1.145E3,2.564E3,3.13E2,1.207E3,7.255E2,5.695E2,2.025E3,1.923E3,6.24E2,5.255E2,4.5281508E4,6E1,4.0241122E5,9.38577E5,5.5E0,1.59E2,2.5675E3,4.4275E3,6.271E3,8.908553E5,3.1484963E4,3.9805055E4,4.146044E4,5.626699E4,4.7357168E4,5.648672E4,6.094472E4,8.712182E4,5.1971695E4,7.444149E4,1.0064246E5,6.471109E4,9.153003E4,1.4682411E5,1.065884E5,7.318095E4,9.6003305E4,6.489722E4,1.2910256E5,8.8636484E4,1.1148894E5,2.9273094E5,8.945358E4,1.3893969E5,1.9089223E5,2.8747222E5,2.1808483E5,1.3339273E5,3.0448922E5,1.502427E5,6.133012E5,1.7774367E5,7.912526E4,3.3557878E5,9.860546E4,1.9845411E5,8.054478E4,1.7544289E5,4.2896256E5,2.1280036E5,2.1181823E5,3.8996166E5,2.6738072E5,6.0831125E4],"split_indices":[1,1,1,1,3,2,3,1,3,1,2,1,3,1,2,1,3,2,0,3,2,2,1,2,3,1,0,0,0,1,0,3,3,3,4,3,2,1,3,3,3,3,3,1,3,4,4,0,4,0,0,2,3,3,1,1,0,0,0,0,0,0,0,0,0,0,0,0,0,0,0,0,0,0,0,0,0,0,0,0,0,0,0,0,0,0,0,0,0,0,0,0,0,0,0,0,0,0,0,0,0],"split_type":[0,0,0,0,0,0,0,0,0,0,0,0,0,0,0,0,0,0,0,0,0,0,0,0,0,0,0,0,0,0,0,0,0,0,0,0,0,0,0,0,0,0,0,0,0,0,0,0,0,0,0,0,0,0,0,0,0,0,0,0,0,0,0,0,0,0,0,0,0,0,0,0,0,0,0,0,0,0,0,0,0,0,0,0,0,0,0,0,0,0,0,0,0,0,0,0,0,0,0,0,0],"sum_hessian":[2.784E3,2.354E3,4.3E2,1.53E3,8.24E2,3.88E2,4.2E1,1.074E3,4.56E2,5.14E2,3.1E2,2.1E1,3.67E2,2.1E1,2.1E1,6.35E2,4.39E2,2.85E2,1.71E2,3.14E2,2E2,2.68E2,4.2E1,1E1,1.1E1,7.7E1,2.9E2,5E0,1.6E1,1.8E1,3E0,2.64E2,3.71E2,3.01E2,1.38E2,2.44E2,4.1E1,6.6E1,1.05E2,8.7E1,2.27E2,1.9E1,1.81E2,9.4E1,1.74E2,3.3E1,9E0,1E0,9E0,4E0,7E0,3.5E1,4.2E1,6.1E1,2.29E2,5E0,1.3E1,1.87E2,7.7E1,2.48E2,1.23E2,1.32E2,1.69E2,6.2E1,7.6E1,6.4E1,1.8E2,2.6E1,1.5E1,2.4E1,4.2E1,7E1,3.5E1,3.2E1,5.5E1,9.3E1,1.34E2,8E0,1.1E1,4.2E1,1.39E2,7.1E1,2.3E1,1.4E1,1.6E2,2.4E1,9E0,7E0,2E0,1E0,8E0,3.3E1,2E0,3E0,3.9E1,5E1,1.1E1,1.88E2,4.1E1,4E0,1E0],"tree_param":{"num_deleted":"0","num_feature":"6","num_nodes":"101","size_leaf_vector":"0"}},{"base_weights":[1.1079534E6,8.4627744E5,2.9935375E6,5.515021E5,1.3714836E6,2.8522062E6,1.0362061E7,4.4221928E5,7.8771944E5,1.0715159E6,1.8577436E6,2.1853018E6,3.881923E6,2.0601985E6,1.1610394E7,3.4561588E5,5.1364028E5,6.502871E5,1.0106011E6,9.190927E5,1.2932018E6,1.6368665E6,3.239891E6,1.67773E6,2.6716572E6,3.4124478E6,8.650569E6,2.7507034E5,3.7468606E5,4.479245E5,6.470937E5,6.169769E5,8.273222E5,9.277926E5,1.5607231E6,7.231875E5,9.8931275E5,1.4302785E6,7.7221256E5,2.0813356E6,1.369502E6,2.4093372E6,4.7403765E6,1.0921316E6,1.9630801E6,1.9861885E6,3.2568752E6,7.7706555E6,2.9890738E6,1.5531585E7,6.409309E6,2.0612025E5,2.8998503E5,3.4165875E5,4.3639425E5,3.967902E5,4.8956834E5,8.953463E5,5.930003E5,4.6813862E5,6.662262E5,9.308071E5,5.960357E5,1.231184E6,8.1076794E5,9.756287E5,2.0157572E6,9.153646E5,6.013766E5,1.0970826E6,7.094549E5,9.46982E5,1.6595968E6,5.4641975E5,8.680333E5,1.8395471E6,3.2531835E6,1.0378606E6,1.7118398E6,2.5503532E6,2.4307E5,6.1683535E6,1.5703518E6,7.487007E5,1.2766468E6,2.912636E6,1.4130264E6,1.6109564E6,2.6828722E6,4.3395545E6,1.924007E6,2.1477325E6,8.1567875E6,5.010871E6,2.3430758E6,1.031761E6,7.624726E6],"categories":[],"categories_nodes":[],"categories_segments":[],"categories_sizes":[],"default_left":[1,1,1,1,1,1,1,1,1,1,1,1,1,0,0,1,1,1,1,1,1,1,1,1,1,1,1,1,1,1,1,1,1,1,1,1,1,1,1,1,1,1,1,1,1,1,1,1,1,0,1,0,0,0,0,0,0,0,0,0,0,0,0,0,0,0,0,0,0,0,0,0,0,0,0,0,0,0,0,0,0,0,0,0,0,0,0,0,0,0,0,0,0,0,0,0,0],"id":5,"left_children":[1,3,5,7,9,11,13,15,17,19,21,23,25,-1,-1,27,29,31,33,35,37,39,41,43,45,47,49,51,53,55,57,59,61,63,65,67,69,71,73,75,77,79,81,83,85,87,89,91,93,-1,95,-1,-1,-1,-1,-1,-1,-1,-1,-1,-1,-1,-1,-1,-1,-1,-1,-1,-1,-1,-1,-1,-1,-1,-1,-1,-1,-1,-1,-1,-1,-1,-1,-1,-1,-1,-1,-1,-1,-1,-1,-1,-1,-1,-1,-1,-1],"loss_changes":[1.371619E15,3.780829E14,3.234811E14,4.0154656E13,1.2622238E14,2.2088211E14,3.8261246E13,7.2394526E12,1.4505212E13,1.7260802E13,9.666186E13,4.6124056E13,2.6151935E14,0E0,0E0,8.4029106E11,5.1124707E12,1.3117602E12,7.0707074E12,3.78291E12,1.4606915E13,3.1611832E13,4.465934E13,1.5067416E13,3.4849499E13,1.9819127E14,7.009682E13,8.214335E10,5.091927E11,6.91582E11,2.1682455E12,1.6232795E12,5.4620114E11,4.860007E12,4.1568405E12,1.5563552E12,6.39982E12,1.7601783E13,5.641989E11,2.4332936E13,1.911351E13,8.849931E12,5.821439E13,1.3254294E12,3.1401227E13,8.7489155E12,6.957639E13,4.1932974E12,1.3323364E14,0E0,5.7492734E13,0E0,0E0,0E0,0E0,0E0,0E0,0E0,0E0,0E0,0E0,0E0,0E0,0E0,0E0,0E0,0E0,0E0,0E0,0E0,0E0,0E0,0E0,0E0,0E0,0E0,0E0,0E0,0E0,0E0,0E0,0E0,0E0,0E0,0E0,0E0,0E0,0E0,0E0,0E0,0E0,0E0,0E0,0E0,0E0,0E0,0E0],"parents":[2147483647,0,0,1,1,2,2,3,3,4,4,5,5,6,6,7,7,8,8,9,9,10,10,11,11,12,12,15,15,16,16,17,17,18,18,19,19,20,20,21,21,22,22,23,23,24,24,25,25,26,26,27,27,28,28,29,29,30,30,31,31,32,32,33,33,34,34,35,35,36,36,37,37,38,38,39,39,40,40,41,41,42,42,43,43,44,44,45,45,46,46,47,47,48,48,50,50],"right_children":[2,4,6,8,10,12,14,16,18,20,22,24,26,-1,-1,28,30,32,34,36,38,40,42,44,46,48,50,52,54,56,58,60,62,64,66,68,70,72,74,76,78,80,82,84,86,88,90,92,94,-1,96,-1,-1,-1,-1,-1,-1,-1,-1,-1,-1,-1,-1,-1,-1,-1,-1,-1,-1,-1,-1,-1,-1,-1,-1,-1,-1,-1,-1,-1,-1,-1,-1,-1,-1,-1,-1,-1,-1,-1,-1,-1,-1,-1,-1,-1,-1],"split_conditions":[2.943E3,1.4765E3,1.17245E4,1.0485E3,1.7865E3,1.779E3,6.225E2,7.095E2,1.789E3,2.1795E3,4E0,3.904E3,5.562E3,2.0601986E5,1.1610394E6,5.275E2,1.787E3,4E0,4E0,5.775E2,1.4415E3,3.5E0,2.3375E3,5.715E2,5.915E2,2.5E0,5.836E3,2.43E2,1.7865E3,8.615E2,1.986E3,5.76E2,5.5E0,2.004E3,2.925E2,3.1E2,1.4605E3,5.785E2,1.5455E3,2.2325E3,2.2035E3,2.248E3,2.505E3,3.3735E3,1.0175E3,6.4395E3,1.3695E3,2.5E0,2.009E3,1.5531585E6,6.3575E3,2.0612025E4,2.8998504E4,3.4165875E4,4.3639426E4,3.967902E4,4.8956836E4,8.953463E4,5.930003E4,4.6813863E4,6.662262E4,9.308071E4,5.960357E4,1.231184E5,8.10768E4,9.756287E4,2.0157573E5,9.153646E4,6.0137664E4,1.09708266E5,7.094549E4,9.46982E4,1.6595967E5,5.4641977E4,8.6803336E4,1.8395472E5,3.2531834E5,1.0378606E5,1.7118398E5,2.5503533E5,2.4307E4,6.168354E5,1.5703517E5,7.487007E4,1.2766468E5,2.912636E5,1.4130264E5,1.6109564E5,2.6828722E5,4.3395547E5,1.924007E5,2.1477325E5,8.1567875E5,5.010871E5,2.3430758E5,1.031761E5,7.624726E5],"split_indices":[1,1,1,1,3,3,3,1,3,1,2,1,1,0,0,1,3,2,2,3,3,0,1,3,3,2,1,3,3,1,3,3,2,3,4,3,3,3,3,1,1,1,3,1,3,1,3,0,3,0,1,0,0,0,0,0,0,0,0,0,0,0,0,0,0,0,0,0,0,0,0,0,0,0,0,0,0,0,0,0,0,0,0,0,0,0,0,0,0,0,0,0,0,0,0,0,0],"split_type":[0,0,0,0,0,0,0,0,0,0,0,0,0,0,0,0,0,0,0,0,0,0,0,0,0,0,0,0,0,0,0,0,0,0,0,0,0,0,0,0,0,0,0,0,0,0,0,0,0,0,0,0,0,0,0,0,0,0,0,0,0,0,0,0,0,0,0,0,0,0,0,0,0,0,0,0,0,0,0,0,0,0,0,0,0,0,0,0,0,0,0,0,0,0,0,0,0],"sum_hessian":[2.784E3,2.446E3,3.38E2,1.568E3,8.78E2,3.33E2,5E0,1.074E3,4.94E2,5.45E2,3.33E2,2.04E2,1.29E2,1E0,4E0,4.59E2,6.15E2,3.08E2,1.86E2,3.26E2,2.19E2,2.89E2,4.4E1,1.02E2,1.02E2,1.19E2,1E1,1.37E2,3.22E2,4.15E2,2E2,2.63E2,4.5E1,1.64E2,2.2E1,8.9E1,2.37E2,1.72E2,4.7E1,1.06E2,1.83E2,3E1,1.4E1,3.5E1,6.7E1,4.9E1,5.3E1,9E0,1.1E2,1E0,9E0,2.7E1,1.1E2,2.14E2,1.08E2,1.91E2,2.24E2,3.3E1,1.67E2,6.8E1,1.95E2,2.9E1,1.6E1,4.3E1,1.21E2,1.1E1,1.1E1,3.2E1,5.7E1,1.69E2,6.8E1,5.7E1,1.15E2,1.6E1,3.1E1,9E1,1.6E1,9.5E1,8.8E1,2.8E1,2E0,9E0,5E0,1.4E1,2.1E1,2.3E1,4.4E1,3.4E1,1.5E1,2.8E1,2.5E1,1E0,8E0,2.5E1,8.5E1,2E0,7E0],"tree_param":{"num_deleted":"0","num_feature":"6","num_nodes":"97","size_leaf_vector":"0"}},{"base_weights":[1.0010894E6,7.210604E5,2.460256E6,4.820699E5,1.1482724E6,2.1800638E6,5.048577E6,3.8700944E5,6.7047306E5,9.006975E5,1.5482432E6,4.7822515E6,2.0113104E6,2.2902578E6,7.5774155E6,3.0996066E5,4.497399E5,5.6912506E5,8.50173E5,6.867437E5,1.04E6,1.340453E6,2.752293E6,2.8058285E6,6.8629485E6,1.181234E6,2.2335198E6,1.261608E6,2.5185895E6,6.1015595E6,1.2693377E7,2.720036E5,3.5477116E5,3.928943E5,5.612842E5,5.951572E5,4.1810672E5,6.9594325E5,9.474496E5,1.1767076E6,6.48045E5,1.5342701E6,9.681802E5,1.9328944E6,1.1355068E6,2.1899945E6,4.557569E6,1.1290944E6,3.1604745E6,3.4273938E6,8.336495E6,9.0686656E5,1.3822064E6,3.2224728E6,1.9528639E6,3.0409505E6,8.0510065E6,3.5806832E6,1.4537381E7,2.1945577E5,2.9296978E5,3.2335206E5,4.0559728E5,3.474523E5,4.2634003E5,6.1160494E5,4.1905006E5,5.1185725E5,6.513093E5,2.7000675E5,4.5208403E5,8.397369E5,4.4881725E5,1.261018E6,8.5145525E5,1.223729E6,2.8271503E5,5.57738E5,7.2491575E5,8.524356E5,1.8161769E6,9.1612475E5,1.5009588E6,9.981576E5,2.1962458E6,9.7746325E5,1.4787252E6,1.1659824E6,2.5260735E6,4.959314E6,4.709305E5,3.4130745E6,1.3491834E6,3.8172768E6,9.3393075E5,8.0907156E5,1.7781175E6,6.9638394E5,1.4309422E6,2.1383882E6,3.765224E6,1.4607038E6,2.6860362E6,3.497089E6,9.6297694E5,8.395344E6,2.3038158E6],"categories":[],"categories_nodes":[],"categories_segments":[],"categories_sizes":[],"default_left":[1,1,1,1,1,1,1,1,1,1,1,1,1,1,1,1,1,1,1,1,1,1,1,1,1,1,1,0,0,1,1,1,1,1,1,1,1,1,1,1,1,1,1,1,1,1,1,0,1,1,0,1,1,1,1,1,1,0,0,0,0,0,0,0,0,0,0,0,0,0,0,0,0,0,0,0,0,0,0,0,0,0,0,0,0,0,0,0,0,0,0,0,0,0,0,0,0,0,0,0,0,0,0,0,0,0,0],"id":6,"left_children":[1,3,5,7,9,11,13,15,17,19,21,23,25,27,29,31,33,35,37,39,41,43,45,47,49,51,53,-1,-1,55,57,59,61,63,65,67,69,71,73,75,77,79,81,83,85,87,89,-1,91,93,-1,95,97,99,101,103,105,-1,-1,-1,-1,-1,-1,-1,-1,-1,-1,-1,-1,-1,-1,-1,-1,-1,-1,-1,-1,-1,-1,-1,-1,-1,-1,-1,-1,-1,-1,-1,-1,-1,-1,-1,-1,-1,-1,-1,-1,-1,-1,-1,-1,-1,-1,-1,-1,-1,-1],"loss_changes":[1.1362019E15,2.3815527E14,3.138958E14,2.6622959E13,8.158653E13,1.686674E14,2.8258543E14,4.6939127E12,8.6586876E12,1.4784016E13,7.612125E13,7.943988E13,6.800638E13,1.9897443E12,8.865994E13,6.722966E11,3.2605764E12,1.02490335E12,2.0261508E12,3.1813209E12,9.625559E12,3.1073887E13,3.6713716E13,4.7565924E12,2.7114531E13,3.3231722E12,7.725116E13,0E0,0E0,8.888066E13,1.5161637E13,2.1003606E11,1.946178E11,4.0964928E11,1.0535001E12,9.4824825E11,1.3456795E11,2.2171762E12,2.1470894E12,2.4254821E11,9.493723E11,5.755944E12,6.279544E12,1.4793142E13,9.728755E12,9.788147E12,1.4082392E13,0E0,4.2798678E11,1.2957212E12,0E0,1.7991257E12,5.4102327E11,3.0193754E13,8.159512E13,5.16297E12,2.4273947E12,0E0,0E0,0E0,0E0,0E0,0E0,0E0,0E0,0E0,0E0,0E0,0E0,0E0,0E0,0E0,0E0,0E0,0E0,0E0,0E0,0E0,0E0,0E0,0E0,0E0,0E0,0E0,0E0,0E0,0E0,0E0,0E0,0E0,0E0,0E0,0E0,0E0,0E0,0E0,0E0,0E0,0E0,0E0,0E0,0E0,0E0,0E0,0E0,0E0,0E0],"parents":[2147483647,0,0,1,1,2,2,3,3,4,4,5,5,6,6,7,7,8,8,9,9,10,10,11,11,12,12,13,13,14,14,15,15,16,16,17,17,18,18,19,19,20,20,21,21,22,22,23,23,24,24,25,25,26,26,29,29,30,30,31,31,32,32,33,33,34,34,35,35,36,36,37,37,38,38,39,39,40,40,41,41,42,42,43,43,44,44,45,45,46,46,48,48,49,49,51,51,52,52,53,53,54,54,55,55,56,56],"right_children":[2,4,6,8,10,12,14,16,18,20,22,24,26,28,30,32,34,36,38,40,42,44,46,48,50,52,54,-1,-1,56,58,60,62,64,66,68,70,72,74,76,78,80,82,84,86,88,90,-1,92,94,-1,96,98,100,102,104,106,-1,-1,-1,-1,-1,-1,-1,-1,-1,-1,-1,-1,-1,-1,-1,-1,-1,-1,-1,-1,-1,-1,-1,-1,-1,-1,-1,-1,-1,-1,-1,-1,-1,-1,-1,-1,-1,-1,-1,-1,-1,-1,-1,-1,-1,-1,-1,-1,-1,-1],"split_conditions":[2.606E3,1.4035E3,5.618E3,9.98E2,1.7865E3,2.5E0,6.49E2,7.055E2,1.789E3,1.8345E3,4E0,3.2985E3,5.905E2,6.4395E3,4E0,5.955E2,1.787E3,1.47E3,3.85E2,2.45E1,2.5E0,2.0025E3,2.3375E3,6.33E2,1.847E3,3.56E3,4.5E0,1.26160805E5,2.5185895E5,6.699E3,4.5E0,4.75E2,1.774E3,8.305E2,2.56E3,6.79E2,1.0995E3,2.554E3,5.175E2,3.5E0,1.5915E3,7.255E2,4E0,1.8475E3,2.157E3,2.172E3,5.96E2,1.1290944E5,2.6095E3,4.5E0,8.336495E5,5.5E0,5.55E1,1.699E3,3.718E3,2.147E3,9.5E0,3.5806834E5,1.4537381E6,2.1945576E4,2.9296979E4,3.2335207E4,4.055973E4,3.474523E4,4.2634004E4,6.1160496E4,4.1905008E4,5.1185727E4,6.5130934E4,2.7000676E4,4.5208402E4,8.397369E4,4.4881727E4,1.26101805E5,8.514552E4,1.223729E5,2.8271504E4,5.57738E4,7.249158E4,8.524356E4,1.8161769E5,9.161248E4,1.5009588E5,9.9815766E4,2.1962458E5,9.774633E4,1.4787253E5,1.1659824E5,2.5260736E5,4.959314E5,4.709305E4,3.4130747E5,1.3491834E5,3.817277E5,9.339308E4,8.090716E4,1.7781175E5,6.96384E4,1.4309423E5,2.1383883E5,3.765224E5,1.4607038E5,2.6860362E5,3.497089E5,9.6297695E4,8.3953444E5,2.3038158E5],"split_indices":[1,1,1,1,3,2,3,1,3,1,2,1,3,1,2,1,3,3,4,4,2,3,1,3,3,1,0,0,0,1,0,1,3,1,3,3,1,3,4,0,1,3,2,3,1,3,4,0,3,0,0,2,4,3,1,3,0,0,0,0,0,0,0,0,0,0,0,0,0,0,0,0,0,0,0,0,0,0,0,0,0,0,0,0,0,0,0,0,0,0,0,0,0,0,0,0,0,0,0,0,0,0,0,0,0,0,0],"split_type":[0,0,0,0,0,0,0,0,0,0,0,0,0,0,0,0,0,0,0,0,0,0,0,0,0,0,0,0,0,0,0,0,0,0,0,0,0,0,0,0,0,0,0,0,0,0,0,0,0,0,0,0,0,0,0,0,0,0,0,0,0,0,0,0,0,0,0,0,0,0,0,0,0,0,0,0,0,0,0,0,0,0,0,0,0,0,0,0,0,0,0,0,0,0,0,0,0,0,0,0,0,0,0,0,0,0,0],"sum_hessian":[2.784E3,2.337E3,4.47E2,1.5E3,8.37E2,4.05E2,4.2E1,9.99E2,5.01E2,5.19E2,3.18E2,2.3E1,3.82E2,2.1E1,2.1E1,4.51E2,5.48E2,3.23E2,1.78E2,2.07E2,3.12E2,2.73E2,4.5E1,1.3E1,1E1,8.2E1,3E2,5E0,1.6E1,1.8E1,3E0,2.48E2,2.03E2,3.66E2,1.82E2,2.73E2,5E1,7.2E1,1.06E2,1.3E1,1.94E2,3.7E1,2.75E2,6.8E1,2.05E2,3.6E1,9E0,3E0,1E1,4E0,6E0,3.7E1,4.5E1,6.4E1,2.36E2,8E0,1E1,1E0,2E0,7.4E1,1.74E2,1.3E2,7.3E1,1.6E2,2.06E2,1.32E2,5E1,1.14E2,1.59E2,1.1E1,3.9E1,4.4E1,2.8E1,2.2E1,8.4E1,1.2E1,1E0,9.3E1,1.01E2,1.2E1,2.5E1,2.53E2,2.2E1,1.6E1,5.2E1,1.43E2,6.2E1,1E1,2.6E1,8E0,1E0,8E0,2E0,3E0,1E0,3.5E1,2E0,4E0,4.1E1,2.3E1,4.1E1,1.43E2,9.3E1,6E0,2E0,9E0,1E0],"tree_param":{"num_deleted":"0","num_feature":"6","num_nodes":"107","size_leaf_vector":"0"}},{"base_weights":[9.0463506E5,7.2192525E5,2.779111E6,4.6648997E5,1.1996164E6,2.6171175E6,8.849665E6,3.5824944E5,6.6561725E5,9.258856E5,1.6185641E6,1.9574275E6,3.83466E6,1.8312591E6,9.887094E6,3.0109175E5,4.4005406E5,5.4137206E5,8.8808375E5,1.010792E6,6.055265E5,1.4095306E6,2.8956588E6,1.4676172E6,2.3359378E6,5.2017975E6,2.3436702E6,2.4778239E5,3.3924156E5,3.8243406E5,5.62077E5,5.921851E5,4.7423366E5,8.144621E5,1.369278E6,6.8299956E5,1.1775272E6,2.4880338E5,6.334671E5,2.0889752E6,1.2135438E6,1.9792315E6,3.979673E6,1.1094484E6,1.9604384E6,3.7330322E6,1.4298078E6,4.5513255E6,9.235121E6,1.4663378E6,6.520856E6,2.2701231E5,2.948622E5,3.034171E5,4.0728797E5,3.221263E5,4.0772828E5,9.156721E5,5.183277E5,5.2376984E5,8.880708E5,5.2060066E5,3.9907284E5,1.2057152E6,6.809777E5,7.849476E5,1.8140649E6,6.2154475E5,1.1741715E6,1.489386E6,9.2570444E5,3.498236E5,-1.0351835E5,7.182449E5,4.7562762E5,1.6877695E6,3.1461112E6,1.7677898E6,1.0473015E6,2.1195035E6,1.0379679E5,5.204831E6,1.3381876E6,1.2159195E6,2.1420618E6,3.8699198E6,-3.9212975E5,9.1714325E5,2.0537851E6,3.1559032E6,5.8540905E6,4.529833E6,1.4028137E7,1.6004588E6,-5.424793E5,7.662233E6,-1.6370375E5],"categories":[],"categories_nodes":[],"categories_segments":[],"categories_sizes":[],"default_left":[1,1,1,1,1,1,1,1,1,1,1,1,1,0,0,1,1,1,1,1,1,1,1,1,1,1,1,1,1,1,1,1,1,1,1,1,1,1,1,1,1,1,1,0,1,1,1,1,1,1,1,0,0,0,0,0,0,0,0,0,0,0,0,0,0,0,0,0,0,0,0,0,0,0,0,0,0,0,0,0,0,0,0,0,0,0,0,0,0,0,0,0,0,0,0,0,0],"id":7,"left_children":[1,3,5,7,9,11,13,15,17,19,21,23,25,-1,-1,27,29,31,33,35,37,39,41,43,45,47,49,51,53,55,57,59,61,63,65,67,69,71,73,75,77,79,81,-1,83,85,87,89,91,93,95,-1,-1,-1,-1,-1,-1,-1,-1,-1,-1,-1,-1,-1,-1,-1,-1,-1,-1,-1,-1,-1,-1,-1,-1,-1,-1,-1,-1,-1,-1,-1,-1,-1,-1,-1,-1,-1,-1,-1,-1,-1,-1,-1,-1,-1,-1],"loss_changes":[9.518147E14,3.0924704E14,2.1973697E14,3.545435E13,9.9877585E13,1.8686839E14,2.5580758E13,4.8939475E12,1.5605915E13,1.3994648E13,8.881898E13,2.605005E13,1.5903324E14,0E0,0E0,1.2094024E12,2.87866E12,1.0018934E12,6.218022E12,2.2314603E13,9.8860584E11,3.754674E13,3.980747E13,1.0533944E13,1.06065996E14,7.078133E13,1.4435902E14,1.9610363E11,7.7350516E11,3.2934094E11,1.6756496E12,3.785913E12,3.7423258E11,8.684105E12,5.333519E12,3.6470102E12,2.0532024E13,3.9212935E11,1.0767995E12,2.2682595E13,1.9893416E13,7.145995E12,6.0995918E13,0E0,1.3168605E12,2.0716741E13,1.5710386E13,5.242343E13,4.9217473E13,1.0567499E13,5.4661545E13,0E0,0E0,0E0,0E0,0E0,0E0,0E0,0E0,0E0,0E0,0E0,0E0,0E0,0E0,0E0,0E0,0E0,0E0,0E0,0E0,0E0,0E0,0E0,0E0,0E0,0E0,0E0,0E0,0E0,0E0,0E0,0E0,0E0,0E0,0E0,0E0,0E0,0E0,0E0,0E0,0E0,0E0,0E0,0E0,0E0,0E0],"parents":[2147483647,0,0,1,1,2,2,3,3,4,4,5,5,6,6,7,7,8,8,9,9,10,10,11,11,12,12,15,15,16,16,17,17,18,18,19,19,20,20,21,21,22,22,23,23,24,24,25,25,26,26,27,27,28,28,29,29,30,30,31,31,32,32,33,33,34,34,35,35,36,36,37,37,38,38,39,39,40,40,41,41,42,42,44,44,45,45,46,46,47,47,48,48,49,49,50,50],"right_children":[2,4,6,8,10,12,14,16,18,20,22,24,26,-1,-1,28,30,32,34,36,38,40,42,44,46,48,50,52,54,56,58,60,62,64,66,68,70,72,74,76,78,80,82,-1,84,86,88,90,92,94,96,-1,-1,-1,-1,-1,-1,-1,-1,-1,-1,-1,-1,-1,-1,-1,-1,-1,-1,-1,-1,-1,-1,-1,-1,-1,-1,-1,-1,-1,-1,-1,-1,-1,-1,-1,-1,-1,-1,-1,-1,-1,-1,-1,-1,-1,-1],"split_conditions":[3.335E3,1.5805E3,1.17245E4,1.0485E3,1.7865E3,1.785E3,6.225E2,8.015E2,1.826E3,1.4595E3,4E0,5.84E2,5.5E0,1.8312592E5,9.8870944E5,6.135E2,1.8515E3,1.084E3,4E0,5.87E2,1.4875E3,2.0055E3,2.3375E3,5.136E3,1.023E3,4E0,6.3575E3,1.789E3,1.7715E3,5.775E2,1.922E3,9.375E2,6.455E2,2.004E3,2.406E3,4E0,1.0845E3,1.483E3,6.53E2,1.948E3,2.5E0,2.248E3,2.505E3,1.10944836E5,5.5E0,6.005E2,4.249E3,6.53E2,4.5E0,2.777E3,8.5975E3,2.2701232E4,2.9486219E4,3.0341709E4,4.0728797E4,3.221263E4,4.077283E4,9.156721E4,5.183277E4,5.2376984E4,8.8807086E4,5.2060066E4,3.9907285E4,1.2057152E5,6.809777E4,7.8494766E4,1.8140648E5,6.2154477E4,1.1741715E5,1.4893861E5,9.2570445E4,3.498236E4,-1.0351835E4,7.182449E4,4.756276E4,1.6877695E5,3.1461112E5,1.7677898E5,1.0473015E5,2.1195036E5,1.0379679E4,5.204831E5,1.3381877E5,1.2159195E5,2.1420617E5,3.8699197E5,-3.9212977E4,9.171433E4,2.0537852E5,3.1559034E5,5.8540906E5,4.529833E5,1.4028138E6,1.6004588E5,-5.4247934E4,7.662233E5,-1.6370375E4],"split_indices":[1,1,1,1,3,3,3,1,3,3,2,3,0,0,0,1,3,3,2,3,3,3,1,1,3,2,1,3,3,3,3,3,4,3,3,2,3,3,4,3,2,1,3,0,0,4,1,4,0,3,1,0,0,0,0,0,0,0,0,0,0,0,0,0,0,0,0,0,0,0,0,0,0,0,0,0,0,0,0,0,0,0,0,0,0,0,0,0,0,0,0,0,0,0,0,0,0],"split_type":[0,0,0,0,0,0,0,0,0,0,0,0,0,0,0,0,0,0,0,0,0,0,0,0,0,0,0,0,0,0,0,0,0,0,0,0,0,0,0,0,0,0,0,0,0,0,0,0,0,0,0,0,0,0,0,0,0,0,0,0,0,0,0,0,0,0,0,0,0,0,0,0,0,0,0,0,0,0,0,0,0,0,0,0,0,0,0,0,0,0,0,0,0,0,0,0,0],"sum_hessian":[2.784E3,2.538E3,2.46E2,1.655E3,8.83E2,2.41E2,5E0,1.074E3,5.81E2,5.36E2,3.47E2,1.58E2,8.3E1,1E0,4E0,6.35E2,4.39E2,3.75E2,2.06E2,4.22E2,1.14E2,3E2,4.7E1,7.1E1,8.7E1,4.2E1,4.1E1,2.68E2,3.67E2,3.01E2,1.38E2,2.09E2,1.66E2,1.81E2,2.5E1,1.44E2,2.78E2,9E0,1.05E2,6.5E1,2.35E2,2.7E1,2E1,4.3E1,2.8E1,3.3E1,5.4E1,3.8E1,4E0,3.5E1,6E0,1.9E2,7.8E1,2.44E2,1.23E2,9.3E1,2.08E2,1.3E1,1.25E2,1.72E2,3.7E1,9.9E1,6.7E1,4.4E1,1.37E2,1.2E1,1.3E1,1.3E2,1.4E1,1.22E2,1.56E2,7E0,2E0,6.6E1,3.9E1,4.9E1,1.6E1,5.2E1,1.83E2,2.5E1,2E0,1.3E1,7E0,7E0,2.1E1,3.2E1,1E0,3.1E1,2.3E1,2E1,1.8E1,3E0,1E0,3.3E1,2E0,5E0,1E0],"tree_param":{"num_deleted":"0","num_feature":"6","num_nodes":"97","size_leaf_vector":"0"}},{"base_weights":[8.1744044E5,6.185921E5,2.250374E6,4.0250072E5,1.00360775E6,2.1374755E6,8.160004E6,3.2274044E5,5.749043E5,7.8662394E5,1.3801932E6,5.2657875E6,1.9943794E6,1.7396961E6,9.096126E6,2.7117638E5,3.9654044E5,4.7625066E5,7.34846E5,6.6071725E5,9.711485E5,1.9615298E6,9.8241925E5,5.582032E6,5.773044E5,1.7795586E6,3.5951768E6,2.2572673E5,3.076703E5,3.45739E5,5.099696E5,4.4584438E5,6.404029E5,6.690977E5,1.1745689E6,5.2283606E5,7.2373625E5,1.6978486E6,8.880183E5,1.5656772E6,3.333509E6,7.1186194E5,1.2511792E6,3.781061E6,7.707373E6,1.6947456E6,4.1921852E6,2.755906E6,1.2188276E7,1.7350445E5,2.4305512E5,2.748049E5,3.7077144E5,3.0294916E5,3.7628362E5,1.0999814E6,4.68788E5,3.1934294E5,4.8810334E5,7.314592E5,4.420445E5,4.6884788E5,7.761344E5,6.980249E5,1.5532321E6,6.800585E5,4.4866497E5,9.658543E5,6.125916E5,9.107163E5,2.1727312E6,8.112252E5,1.4570761E6,1.8198411E6,1.2166985E6,4.182306E5,3.5416752E6,3.7927144E5,8.146038E5,1.4573625E6,6.779266E5,4.180962E6,2.9092625E5,1.0252723E6,1.9205095E6,7.584743E5,4.52659E6,2.1224488E6,4.6285185E6],"categories":[],"categories_nodes":[],"categories_segments":[],"categories_sizes":[],"default_left":[1,1,1,1,1,1,1,1,1,1,1,1,1,0,0,1,1,1,1,1,1,1,1,1,0,1,1,1,1,1,1,1,1,1,1,1,1,1,1,1,1,1,1,1,0,1,1,1,0,0,0,0,0,0,0,0,0,0,0,0,0,0,0,0,0,0,0,0,0,0,0,0,0,0,0,0,0,0,0,0,0,0,0,0,0,0,0,0,0],"id":8,"left_children":[1,3,5,7,9,11,13,15,17,19,21,23,25,-1,-1,27,29,31,33,35,37,39,41,43,-1,45,47,49,51,53,55,57,59,61,63,65,67,69,71,73,75,77,79,81,-1,83,85,87,-1,-1,-1,-1,-1,-1,-1,-1,-1,-1,-1,-1,-1,-1,-1,-1,-1,-1,-1,-1,-1,-1,-1,-1,-1,-1,-1,-1,-1,-1,-1,-1,-1,-1,-1,-1,-1,-1,-1,-1,-1],"loss_changes":[7.92156E14,2.0318289E14,2.0873541E14,2.1389709E13,7.074006E13,1.39012925E14,2.0236678E13,3.9833053E12,7.460543E12,1.2368734E13,7.206989E13,1.7535345E13,1.0398908E14,0E0,0E0,9.8544334E11,2.359124E12,1.2567729E12,4.620462E12,2.5411442E12,1.2084696E13,6.4840853E13,1.3070626E13,2.0617756E13,0E0,5.1212586E13,2.3325196E14,2.1754282E11,6.2395515E11,2.872553E11,2.7402248E12,1.2554265E12,5.075045E11,3.1727393E12,3.0661474E12,9.659713E11,5.5438297E12,6.244761E12,7.7327363E12,6.832974E12,1.5510905E13,3.0398009E12,1.0240544E13,1.134503E13,0E0,3.9897495E13,6.9009387E12,3.1693923E13,0E0,0E0,0E0,0E0,0E0,0E0,0E0,0E0,0E0,0E0,0E0,0E0,0E0,0E0,0E0,0E0,0E0,0E0,0E0,0E0,0E0,0E0,0E0,0E0,0E0,0E0,0E0,0E0,0E0,0E0,0E0,0E0,0E0,0E0,0E0,0E0,0E0,0E0,0E0,0E0,0E0],"parents":[2147483647,0,0,1,1,2,2,3,3,4,4,5,5,6,6,7,7,8,8,9,9,10,10,11,11,12,12,15,15,16,16,17,17,18,18,19,19,20,20,21,21,22,22,23,23,25,25,26,26,27,27,28,28,29,29,30,30,31,31,32,32,33,33,34,34,35,35,36,36,37,37,38,38,39,39,40,40,41,41,42,42,43,43,45,45,46,46,47,47],"right_children":[2,4,6,8,10,12,14,16,18,20,22,24,26,-1,-1,28,30,32,34,36,38,40,42,44,-1,46,48,50,52,54,56,58,60,62,64,66,68,70,72,74,76,78,80,82,-1,84,86,88,-1,-1,-1,-1,-1,-1,-1,-1,-1,-1,-1,-1,-1,-1,-1,-1,-1,-1,-1,-1,-1,-1,-1,-1,-1,-1,-1,-1,-1,-1,-1,-1,-1,-1,-1,-1,-1,-1,-1,-1,-1],"split_conditions":[2.943E3,1.4765E3,1.17245E4,1.0485E3,1.8155E3,2.5E0,6.225E2,8.015E2,1.789E3,2.1745E3,3.5E0,5.374E3,5.618E3,1.7396961E5,9.096126E5,6.265E2,1.878E3,4E0,4E0,7.275E2,2.5E0,2.2225E3,2.2035E3,2.407E3,5.7730438E4,5.5E0,2.4565E3,4.75E2,1.7855E3,7.615E2,1.9135E3,5.76E2,5.5E0,3.85E2,2.925E2,3.1E2,1.1905E3,7.255E2,4E0,5.255E2,5.55E1,1.699E3,2.568E3,2.276E3,7.707373E5,7.315E2,3.79E2,1.7765E3,1.2188276E6,1.7350445E4,2.4305514E4,2.748049E4,3.7077145E4,3.0294916E4,3.7628363E4,1.0999814E5,4.68788E4,3.1934295E4,4.8810336E4,7.314592E4,4.420445E4,4.688479E4,7.761344E4,6.980249E4,1.5532322E5,6.800585E4,4.4866496E4,9.658543E4,6.1259164E4,9.107163E4,2.1727312E5,8.112252E4,1.4570761E5,1.8198411E5,1.2166985E5,4.182306E4,3.5416753E5,3.7927145E4,8.146038E4,1.4573625E5,6.7792664E4,4.1809622E5,2.9092625E4,1.02527234E5,1.9205095E5,7.584743E4,4.52659E5,2.1224488E5,4.6285184E5],"split_indices":[1,1,1,1,3,2,3,1,3,1,0,1,1,0,0,1,3,2,2,3,2,1,1,3,0,2,3,1,3,3,3,3,2,4,4,3,3,3,2,4,4,1,3,3,0,3,3,3,0,0,0,0,0,0,0,0,0,0,0,0,0,0,0,0,0,0,0,0,0,0,0,0,0,0,0,0,0,0,0,0,0,0,0,0,0,0,0,0,0],"split_type":[0,0,0,0,0,0,0,0,0,0,0,0,0,0,0,0,0,0,0,0,0,0,0,0,0,0,0,0,0,0,0,0,0,0,0,0,0,0,0,0,0,0,0,0,0,0,0,0,0,0,0,0,0,0,0,0,0,0,0,0,0,0,0,0,0,0,0,0,0,0,0,0,0,0,0,0,0,0,0,0,0,0,0,0,0,0,0,0,0],"sum_hessian":[2.784E3,2.446E3,3.38E2,1.568E3,8.78E2,3.33E2,5E0,1.074E3,4.94E2,5.59E2,3.19E2,1.3E1,3.2E2,1E0,4E0,6.35E2,4.39E2,3.08E2,1.86E2,3.35E2,2.24E2,1.28E2,1.91E2,1.2E1,1E0,2.84E2,3.6E1,2.86E2,3.49E2,3.06E2,1.33E2,2.63E2,4.5E1,1.64E2,2.2E1,1.08E2,2.27E2,2.1E1,2.03E2,1.01E2,2.7E1,9.7E1,9.4E1,8E0,4E0,2.76E2,8E0,3.4E1,2E0,7.4E1,2.12E2,2.33E2,1.16E2,1.32E2,1.74E2,7E0,1.26E2,6.8E1,1.95E2,2.9E1,1.6E1,5.9E1,1.05E2,1.1E1,1.1E1,3.2E1,7.6E1,6.9E1,1.58E2,9E0,1.2E1,1.81E2,2.2E1,5.6E1,4.5E1,2E0,2.5E1,2.4E1,7.3E1,6.8E1,2.6E1,7E0,1E0,7.1E1,2.05E2,1E0,7E0,2.7E1,7E0],"tree_param":{"num_deleted":"0","num_feature":"6","num_nodes":"89","size_leaf_vector":"0"}},{"base_weights":[7.3849475E5,5.8574894E5,2.305633E6,3.7897834E5,9.7580606E5,2.1667098E6,7.5246005E6,2.907743E5,5.3986475E5,1.4752878E6,8.148385E5,1.5956679E6,3.2218162E6,1.6527114E6,8.368436E6,2.4830764E5,3.6472653E5,4.353739E5,7.2537756E5,1.1116602E6,2.4055755E6,6.170086E5,9.7389856E5,1.8179244E6,8.6518794E5,4.4584155E6,1.8790645E6,2.2122912E5,3.062043E5,3.1892534E5,4.6635006E5,4.734627E5,3.6165047E5,1.0549365E6,6.238793E5,7.354758E5,1.5031172E6,1.3769539E6,3.0715745E6,9.287896E5,5.852875E5,4.8624178E5,1.0711158E6,1.2161275E6,2.7078212E6,5.0417584E5,1.1829406E6,3.861903E6,8.219529E6,1.1284042E6,5.4711655E6,1.8080908E5,2.4674275E5,3.3932938E5,1.9792667E5,3.3681525E5,2.3275786E5,1.0648544E6,4.2514756E5,3.7190794E5,5.5694975E5,2.6927472E5,4.0429384E5,3.4690856E5,1.2094325E6,3.7703762E5,8.010606E5,6.034006E5,1.0841002E6,2.0582065E6,1.2638446E6,1.554785E6,5.4644594E4,2.241818E6,3.9167965E6,1.11117336E5,9.922991E5,4.8797453E5,6.840424E5,2.34145E5,5.350671E5,1.3880504E6,9.0819656E5,9.468545E5,1.6013146E6,1.952957E6,3.6669838E6,7.1061775E5,1.7290042E5,1.7853259E6,6.325734E5,2.5661065E6,5.090841E6,3.9157532E6,1.2717316E7,1.2507529E6,-6.34348E5,6.5120075E6,-3.869445E5],"categories":[],"categories_nodes":[],"categories_segments":[],"categories_sizes":[],"default_left":[1,1,1,1,1,1,1,1,1,1,1,1,1,0,0,1,1,1,1,1,1,1,1,1,1,1,1,1,1,1,1,1,1,1,1,1,1,1,1,1,1,1,1,1,1,1,1,1,1,1,1,0,0,0,0,0,0,0,0,0,0,0,0,0,0,0,0,0,0,0,0,0,0,0,0,0,0,0,0,0,0,0,0,0,0,0,0,0,0,0,0,0,0,0,0,0,0,0,0],"id":9,"left_children":[1,3,5,7,9,11,13,15,17,19,21,23,25,-1,-1,27,29,31,33,35,37,39,41,43,45,47,49,51,53,55,57,59,61,63,65,67,69,71,73,75,77,79,81,83,85,87,89,91,93,95,97,-1,-1,-1,-1,-1,-1,-1,-1,-1,-1,-1,-1,-1,-1,-1,-1,-1,-1,-1,-1,-1,-1,-1,-1,-1,-1,-1,-1,-1,-1,-1,-1,-1,-1,-1,-1,-1,-1,-1,-1,-1,-1,-1,-1,-1,-1,-1,-1],"loss_changes":[6.653056E14,2.0440655E14,1.6278033E14,2.341398E13,6.9469754E13,1.4066662E14,1.5898828E13,3.2854738E12,1.1062829E13,6.9379056E13,2.0387472E13,2.4241433E13,1.3109978E14,0E0,0E0,1.00773606E12,1.6665186E12,8.9021586E11,6.366274E12,2.17198E13,3.6189193E13,2.42341E12,1.692556E13,6.150695E13,3.8773803E12,6.4729586E13,1.0707711E14,4.4111076E11,7.075644E11,3.4090045E11,2.4818032E12,1.8785784E12,4.1504945E11,4.831037E12,6.8268925E12,3.075465E12,7.360081E12,5.7937347E12,1.5765751E13,1.239918E12,2.3089895E12,6.5016535E11,1.4539605E13,6.1591005E12,2.7592346E13,1.2449166E12,5.501312E12,4.9042084E13,4.6989492E13,8.557542E12,4.5201377E13,0E0,0E0,0E0,0E0,0E0,0E0,0E0,0E0,0E0,0E0,0E0,0E0,0E0,0E0,0E0,0E0,0E0,0E0,0E0,0E0,0E0,0E0,0E0,0E0,0E0,0E0,0E0,0E0,0E0,0E0,0E0,0E0,0E0,0E0,0E0,0E0,0E0,0E0,0E0,0E0,0E0,0E0,0E0,0E0,0E0,0E0,0E0,0E0],"parents":[2147483647,0,0,1,1,2,2,3,3,4,4,5,5,6,6,7,7,8,8,9,9,10,10,11,11,12,12,15,15,16,16,17,17,18,18,19,19,20,20,21,21,22,22,23,23,24,24,25,25,26,26,27,27,28,28,29,29,30,30,31,31,32,32,33,33,34,34,35,35,36,36,37,37,38,38,39,39,40,40,41,41,42,42,43,43,44,44,45,45,46,46,47,47,48,48,49,49,50,50],"right_children":[2,4,6,8,10,12,14,16,18,20,22,24,26,-1,-1,28,30,32,34,36,38,40,42,44,46,48,50,52,54,56,58,60,62,64,66,68,70,72,74,76,78,80,82,84,86,88,90,92,94,96,98,-1,-1,-1,-1,-1,-1,-1,-1,-1,-1,-1,-1,-1,-1,-1,-1,-1,-1,-1,-1,-1,-1,-1,-1,-1,-1,-1,-1,-1,-1,-1,-1,-1,-1,-1,-1,-1,-1,-1,-1,-1,-1,-1,-1,-1,-1,-1,-1],"split_conditions":[3.335E3,1.5835E3,1.17245E4,1.0485E3,3.5E0,1.785E3,6.225E2,8.305E2,1.826E3,2.2085E3,2.2085E3,1.3925E3,5.5E0,1.6527114E5,8.368436E5,1.7865E3,1.878E3,1.194E3,2.0035E3,1.822E3,1.6675E3,2.5E0,5.785E2,6.565E2,1.6185E3,4E0,6.3575E3,6.02E2,2.561E3,1.465E3,1.9135E3,5.76E2,1.216E3,1.1635E3,2.4345E3,4E0,1.977E3,1.461E3,4E0,1.5E0,1.9065E3,4.03E2,4.5E0,5.136E3,5.08E2,1.518E3,1.7055E3,6.53E2,4.5E0,2.777E3,8.5975E3,1.8080908E4,2.4674275E4,3.3932938E4,1.9792668E4,3.3681527E4,2.3275787E4,1.0648544E5,4.2514758E4,3.7190793E4,5.5694977E4,2.6927473E4,4.0429387E4,3.4690855E4,1.2094325E5,3.770376E4,8.010606E4,6.0340062E4,1.0841002E5,2.0582066E5,1.2638446E5,1.554785E5,5.4644595E3,2.241818E5,3.9167966E5,1.1111733E4,9.9229914E4,4.8797453E4,6.840424E4,2.34145E4,5.3506715E4,1.3880505E5,9.081966E4,9.468545E4,1.6013147E5,1.952957E5,3.6669838E5,7.106177E4,1.7290043E4,1.785326E5,6.325734E4,2.5661066E5,5.090841E5,3.9157534E5,1.2717316E6,1.2507529E5,-6.34348E4,6.5120075E5,-3.869445E4],"split_indices":[1,1,1,1,0,3,3,1,3,1,1,3,0,0,0,3,3,3,3,3,3,2,3,3,3,2,1,1,3,3,3,3,1,1,3,2,3,3,2,2,1,4,0,1,4,3,3,4,0,3,1,0,0,0,0,0,0,0,0,0,0,0,0,0,0,0,0,0,0,0,0,0,0,0,0,0,0,0,0,0,0,0,0,0,0,0,0,0,0,0,0,0,0,0,0,0,0,0,0],"split_type":[0,0,0,0,0,0,0,0,0,0,0,0,0,0,0,0,0,0,0,0,0,0,0,0,0,0,0,0,0,0,0,0,0,0,0,0,0,0,0,0,0,0,0,0,0,0,0,0,0,0,0,0,0,0,0,0,0,0,0,0,0,0,0,0,0,0,0,0,0,0,0,0,0,0,0,0,0,0,0,0,0,0,0,0,0,0,0,0,0,0,0,0,0,0,0,0,0,0,0],"sum_hessian":[2.784E3,2.538E3,2.46E2,1.66E3,8.78E2,2.41E2,5E0,1.074E3,5.86E2,2.12E2,6.66E2,1.58E2,8.3E1,1E0,4E0,6.85E2,3.89E2,3.77E2,2.09E2,1.54E2,5.8E1,2.99E2,3.67E2,1.2E2,3.8E1,4.2E1,4.1E1,4.7E2,2.15E2,2.71E2,1.18E2,2.45E2,1.32E2,4.7E1,1.62E2,8E1,7.4E1,2.4E1,3.4E1,2.5E1,2.74E2,6.2E1,3.05E2,7.3E1,4.7E1,1.9E1,1.9E1,3.8E1,4E0,3.5E1,6E0,1.85E2,2.85E2,1.63E2,5.2E1,2.22E2,4.9E1,6E0,1.12E2,1.13E2,1.32E2,4.4E1,8.8E1,9E0,3.8E1,6.9E1,9.3E1,6E1,2E1,2E1,5.4E1,2.1E1,3E0,1.9E1,1.5E1,2E0,2.3E1,1.41E2,1.33E2,1.1E1,5.1E1,1.01E2,2.04E2,4.5E1,2.8E1,2.8E1,1.9E1,1.1E1,8E0,8E0,1.1E1,2E1,1.8E1,3E0,1E0,3.3E1,2E0,5E0,1E0],"tree_param":{"num_deleted":"0","num_feature":"6","num_nodes":"99","size_leaf_vector":"0"}},{"base_weights":[6.6744606E5,5.205187E5,2.0285342E6,3.2658947E5,8.412731E5,1.9101422E6,6.939159E6,2.5448311E5,4.5251888E5,6.387334E5,1.1498735E6,1.3896784E6,2.9124975E6,1.5700758E6,7.698961E6,2.0158573E5,2.9757078E5,3.740508E5,5.872851E5,7.029546E5,3.8187812E5,9.825443E5,2.1903598E6,1.6002046E6,7.3657456E5,4.04889E6,1.6861295E6,1.469778E5,2.1789053E5,2.586208E5,3.773001E5,4.2086203E5,3.055419E5,6.8140356E5,3.493046E5,4.5652697E5,8.2873675E5,2.4710969E5,4.275841E5,1.3746429E6,8.138805E5,1.5254032E6,3.0676592E6,1.119263E6,2.4564115E6,4.0426362E5,1.0971079E6,3.5142322E6,7.7302375E6,1.0460251E6,5.0115495E6,1.5301092E5,1.9918447E4,1.7151072E5,2.3604692E5,2.7237834E5,1.8681981E5,5.948334E5,3.4118334E5,3.6357478E5,6.751172E5,1.417305E5,3.2390675E5,5.532002E5,1.4742452E6,1.609043E5,6.535788E5,4.108973E5,7.8606156E5,1.0126446E6,6.143853E5,3.01746E5,9.673521E4,8.079814E4,4.3914506E5,1.1404569E6,2.156714E6,9.3317075E5,4.7004553E5,1.8609982E6,6.34554E5,4.12256E6,8.381255E5,8.075716E5,1.6562678E6,3.2292735E6,1.5811988E6,5.924134E5,1.1094457E5,1.6266304E6,6.4612244E5,2.3972868E6,4.623008E6,7.911035E5,9.267245E6,1.1733175E6,-3.611123E5,5.96934E6,-3.6759725E5],"categories":[],"categories_nodes":[],"categories_segments":[],"categories_sizes":[],"default_left":[1,1,1,1,1,1,1,1,1,1,1,1,1,0,0,1,1,1,1,1,1,1,1,1,1,1,1,1,1,1,1,1,1,1,1,1,1,1,1,1,1,1,1,1,1,1,1,1,1,1,1,0,0,0,0,0,0,0,0,0,0,0,0,0,0,0,0,0,0,0,0,0,0,0,0,0,0,0,0,0,0,0,0,0,0,0,0,0,0,0,0,0,0,0,0,0,0,0,0],"id":10,"left_children":[1,3,5,7,9,11,13,15,17,19,21,23,25,-1,-1,27,29,31,33,35,37,39,41,43,45,47,49,51,53,55,57,59,61,63,65,67,69,71,73,75,77,79,81,83,85,87,89,91,93,95,97,-1,-1,-1,-1,-1,-1,-1,-1,-1,-1,-1,-1,-1,-1,-1,-1,-1,-1,-1,-1,-1,-1,-1,-1,-1,-1,-1,-1,-1,-1,-1,-1,-1,-1,-1,-1,-1,-1,-1,-1,-1,-1,-1,-1,-1,-1,-1,-1],"loss_changes":[5.5589158E14,1.5616743E14,1.4429889E14,1.4131852E13,5.8456652E13,1.3472198E14,1.2388699E13,2.2192356E12,5.807987E12,9.200004E12,6.296271E13,2.315806E13,1.1860029E14,0E0,0E0,3.7042415E11,1.6073202E12,1.0355401E12,4.4208384E12,1.3817916E13,6.150276E11,2.0308216E13,2.5072257E13,5.2018094E13,4.9478904E12,6.337412E13,9.054551E13,7.897455E10,2.508781E11,3.1657768E11,1.1955255E12,2.857013E12,4.083564E11,1.422791E13,3.3916836E12,2.0377481E12,1.1282946E13,2.3371946E11,3.093079E11,1.5122748E13,8.954067E12,8.0869956E12,4.5935447E13,1.322449E13,2.6685538E13,1.313973E12,3.9639444E12,4.0931877E13,4.5996147E13,7.4092925E12,3.825898E13,0E0,0E0,0E0,0E0,0E0,0E0,0E0,0E0,0E0,0E0,0E0,0E0,0E0,0E0,0E0,0E0,0E0,0E0,0E0,0E0,0E0,0E0,0E0,0E0,0E0,0E0,0E0,0E0,0E0,0E0,0E0,0E0,0E0,0E0,0E0,0E0,0E0,0E0,0E0,0E0,0E0,0E0,0E0,0E0,0E0,0E0,0E0,0E0],"parents":[2147483647,0,0,1,1,2,2,3,3,4,4,5,5,6,6,7,7,8,8,9,9,10,10,11,11,12,12,15,15,16,16,17,17,18,18,19,19,20,20,21,21,22,22,23,23,24,24,25,25,26,26,27,27,28,28,29,29,30,30,31,31,32,32,33,33,34,34,35,35,36,36,37,37,38,38,39,39,40,40,41,41,42,42,43,43,44,44,45,45,46,46,47,47,48,48,49,49,50,50],"right_children":[2,4,6,8,10,12,14,16,18,20,22,24,26,-1,-1,28,30,32,34,36,38,40,42,44,46,48,50,52,54,56,58,60,62,64,66,68,70,72,74,76,78,80,82,84,86,88,90,92,94,96,98,-1,-1,-1,-1,-1,-1,-1,-1,-1,-1,-1,-1,-1,-1,-1,-1,-1,-1,-1,-1,-1,-1,-1,-1,-1,-1,-1,-1,-1,-1,-1,-1,-1,-1,-1,-1,-1,-1,-1,-1,-1,-1,-1,-1,-1,-1,-1,-1],"split_conditions":[3.1865E3,1.4765E3,1.17245E4,9.98E2,1.7865E3,1.785E3,6.225E2,7.055E2,1.789E3,1.46E3,4E0,1.3925E3,5.5E0,1.5700758E5,7.698961E5,5.085E2,1.8285E3,1.094E3,2.5455E3,5.775E2,1.542E3,2.5E0,2.3375E3,7.76E2,1.6185E3,4E0,6.3575E3,6.5E0,7.57E2,1.471E3,2.0015E3,9.375E2,1.1415E3,2.466E3,2.733E3,4E0,1.1875E3,6.455E2,1.537E3,2.2325E3,2.5615E3,6.24E2,2.505E3,5.127E3,9.89E2,1.518E3,1.7055E3,6.53E2,2.81E2,7.5E0,8.5975E3,1.5301093E4,1.9918447E3,1.7151072E4,2.3604693E4,2.7237834E4,1.8681982E4,5.948334E4,3.4118336E4,3.635748E4,6.751172E4,1.417305E4,3.2390676E4,5.532002E4,1.4742453E5,1.609043E4,6.5357883E4,4.108973E4,7.860616E4,1.0126446E5,6.143853E4,3.01746E4,9.673521E3,8.079814E3,4.3914508E4,1.1404569E5,2.156714E5,9.331708E4,4.7004555E4,1.8609983E5,6.3455402E4,4.12256E5,8.3812555E4,8.0757164E4,1.6562678E5,3.2292734E5,1.5811988E5,5.924134E4,1.1094457E4,1.6266305E5,6.4612246E4,2.3972867E5,4.623008E5,7.911035E4,9.267245E5,1.1733175E5,-3.611123E4,5.96934E5,-3.6759727E4],"split_indices":[1,1,1,1,3,3,3,1,3,3,2,3,0,0,0,1,3,3,3,3,3,2,1,3,3,2,1,2,3,3,3,3,3,3,3,2,3,4,1,1,3,4,3,1,3,3,3,4,4,0,1,0,0,0,0,0,0,0,0,0,0,0,0,0,0,0,0,0,0,0,0,0,0,0,0,0,0,0,0,0,0,0,0,0,0,0,0,0,0,0,0,0,0,0,0,0,0,0,0],"split_type":[0,0,0,0,0,0,0,0,0,0,0,0,0,0,0,0,0,0,0,0,0,0,0,0,0,0,0,0,0,0,0,0,0,0,0,0,0,0,0,0,0,0,0,0,0,0,0,0,0,0,0,0,0,0,0,0,0,0,0,0,0,0,0,0,0,0,0,0,0,0,0,0,0,0,0,0,0,0,0,0,0,0,0,0,0,0,0,0,0,0,0,0,0,0,0,0,0,0,0],"sum_hessian":[2.784E3,2.514E3,2.7E2,1.568E3,9.46E2,2.65E2,5E0,9.99E2,5.69E2,5.73E2,3.73E2,1.76E2,8.9E1,1E0,4E0,4.51E2,5.48E2,3.62E2,2.07E2,4.57E2,1.16E2,3.23E2,5E1,1.32E2,4.4E1,4.5E1,4.4E1,1.06E2,3.45E2,3.71E2,1.77E2,2.12E2,1.5E2,1.47E2,6E1,1.56E2,3.01E2,3.1E1,8.5E1,9.5E1,2.28E2,3E1,2E1,8.6E1,4.6E1,2.4E1,2E1,4.1E1,4E0,3.8E1,6E0,1.01E2,5E0,1E2,2.45E2,3.09E2,6.2E1,2.3E1,1.54E2,1.75E2,3.7E1,1.6E1,1.34E2,1.28E2,1.9E1,3.8E1,2.2E1,1.39E2,1.7E1,1.6E2,1.41E2,2.2E1,9E0,3E0,8.2E1,7.5E1,2E1,1.68E2,6E1,2.1E1,9E0,1.3E1,7E0,5.6E1,3E1,2.3E1,2.3E1,1.4E1,1E1,8E0,1.2E1,2.2E1,1.9E1,1E0,3E0,3.5E1,3E0,5E0,1E0],"tree_param":{"num_deleted":"0","num_feature":"6","num_nodes":"99","size_leaf_vector":"0"}},{"base_weights":[6.0304375E5,4.2113894E5,1.5167749E6,2.6182972E5,6.382008E5,1.2014215E6,2.5775338E6,2.0558623E5,3.3273688E5,5.729473E5,1.1456616E6,3.0258665E6,1.0729582E6,1.2159425E6,3.3967295E6,1.8147386E5,2.5616934E5,2.931527E5,4.1061812E5,4.6937997E5,7.5222556E5,7.4378156E5,2.1145598E6,2.0441692E6,4.977722E6,1.7246702E6,8.625613E5,9.244348E5,1.613646E6,2.476072E6,5.0836475E6,1.2476502E5,1.9545E5,2.881484E5,1.4594975E5,3.1526125E5,1.7571888E5,4.7257216E5,2.2399344E5,3.625299E5,5.968398E5,1.5120642E6,6.4059194E5,6.5796406E5,1.4338938E6,3.959818E6,1.3344811E6,2.0245919E5,2.1466225E6,6.4432905E6,8.7586744E5,1.01212844E6,2.4297225E6,6.709714E5,1.0293125E6,1.4817105E5,9.829497E5,2.9464832E6,7.969762E5,3.8736778E6,9.560091E6,1.4867597E5,8.738726E4,3.2518575E5,1.8205678E5,2.4323111E5,5.3131944E5,2.873688E4,2.7078075E5,2.6066661E5,3.633376E5,1.362678E5,2.2298397E5,3.89884E5,8.6049494E5,1.01257445E5,4.635091E5,2.2864212E5,4.1406278E5,6.688838E5,3.4983353E5,9.854123E5,2.0422895E6,-4.0581978E5,6.810006E5,5.3481044E5,8.8711894E5,2.531078E6,2.6936775E5,8.6910725E5,4.2375185E6,1.8356271E6,4.493141E5,2.2839972E6,7.899987E5,1.289422E6,2.1144261E5,2.9445585E6,8.0474025E5,7.245655E5,6.428831E4,2.7150572E6,9.704315E5,1.0437422E6,5.431897E5,3.88877E6,1.8928524E6,1.1352411E6,-4.8347734E5,1.0543935E6,4.8052515E6,2.930428E6,1.0793169E7],"categories":[],"categories_nodes":[],"categories_segments":[],"categories_sizes":[],"default_left":[1,1,1,1,1,1,1,1,1,1,1,1,1,1,1,1,1,1,1,1,1,1,1,1,1,1,1,1,0,1,1,1,1,1,1,1,1,1,1,1,1,1,1,1,1,1,1,0,1,0,0,1,1,1,1,0,1,1,1,1,1,0,0,0,0,0,0,0,0,0,0,0,0,0,0,0,0,0,0,0,0,0,0,0,0,0,0,0,0,0,0,0,0,0,0,0,0,0,0,0,0,0,0,0,0,0,0,0,0,0,0,0,0],"id":11,"left_children":[1,3,5,7,9,11,13,15,17,19,21,23,25,27,29,31,33,35,37,39,41,43,45,47,49,51,53,55,-1,57,59,61,63,65,67,69,71,73,75,77,79,81,83,85,87,89,91,-1,93,-1,-1,95,97,99,101,-1,103,105,107,109,111,-1,-1,-1,-1,-1,-1,-1,-1,-1,-1,-1,-1,-1,-1,-1,-1,-1,-1,-1,-1,-1,-1,-1,-1,-1,-1,-1,-1,-1,-1,-1,-1,-1,-1,-1,-1,-1,-1,-1,-1,-1,-1,-1,-1,-1,-1,-1,-1,-1,-1,-1,-1],"loss_changes":[4.622619E14,8.019674E13,1.5144867E14,5.283573E12,3.189426E13,8.065932E13,1.1298784E14,8.694918E11,1.7046826E12,1.5856248E13,4.1648516E13,3.3895714E13,4.4584076E13,3.2615663E12,8.836231E13,3.8141113E11,8.038782E11,9.727346E11,2.1718903E12,7.3558445E12,2.6005272E13,3.7944484E12,4.077798E13,2.7731144E12,3.643736E13,3.823353E13,7.488007E12,1.03535136E12,0E0,3.2405813E13,8.212716E13,7.995641E10,6.514677E11,1.8914455E12,8.1159927E11,7.766928E11,9.08173E10,4.3797677E12,1.4523231E12,2.0097133E12,4.2504238E12,9.157273E12,1.2073631E13,1.5857112E12,9.539805E12,4.0417656E12,9.821575E12,0E0,1.1775005E12,0E0,0E0,9.052415E12,3.1094372E13,3.9202062E12,1.0765101E13,0E0,7.46691E10,2.639509E13,5.313321E12,4.4834425E13,1.0709568E12,0E0,0E0,0E0,0E0,0E0,0E0,0E0,0E0,0E0,0E0,0E0,0E0,0E0,0E0,0E0,0E0,0E0,0E0,0E0,0E0,0E0,0E0,0E0,0E0,0E0,0E0,0E0,0E0,0E0,0E0,0E0,0E0,0E0,0E0,0E0,0E0,0E0,0E0,0E0,0E0,0E0,0E0,0E0,0E0,0E0,0E0,0E0,0E0,0E0,0E0,0E0,0E0],"parents":[2147483647,0,0,1,1,2,2,3,3,4,4,5,5,6,6,7,7,8,8,9,9,10,10,11,11,12,12,13,13,14,14,15,15,16,16,17,17,18,18,19,19,20,20,21,21,22,22,23,23,24,24,25,25,26,26,27,27,29,29,30,30,31,31,32,32,33,33,34,34,35,35,36,36,37,37,38,38,39,39,40,40,41,41,42,42,43,43,44,44,45,45,46,46,48,48,51,51,52,52,53,53,54,54,56,56,57,57,58,58,59,59,60,60],"right_children":[2,4,6,8,10,12,14,16,18,20,22,24,26,28,30,32,34,36,38,40,42,44,46,48,50,52,54,56,-1,58,60,62,64,66,68,70,72,74,76,78,80,82,84,86,88,90,92,-1,94,-1,-1,96,98,100,102,-1,104,106,108,110,112,-1,-1,-1,-1,-1,-1,-1,-1,-1,-1,-1,-1,-1,-1,-1,-1,-1,-1,-1,-1,-1,-1,-1,-1,-1,-1,-1,-1,-1,-1,-1,-1,-1,-1,-1,-1,-1,-1,-1,-1,-1,-1,-1,-1,-1,-1,-1,-1,-1,-1,-1,-1],"split_conditions":[2.5815E3,1.264E3,4.4535E3,8.645E2,4.5E0,2.5E0,6.31E2,1.7865E3,1.7875E3,1.822E3,2.338E3,2.4695E3,4.5E0,6.8375E3,5.618E3,2.425E2,2.561E3,1.4655E3,2.565E3,1.9E3,1.923E3,2.4585E3,2.4925E3,1E0,2.6185E3,1.7735E3,3.1865E3,1.74E2,1.6136461E5,6.5E0,4E0,1.47E2,3.09E2,2.426E3,2.7175E3,7.575E2,2.5E0,2.4335E3,5.83E2,5.76E2,1.4425E3,1.6775E3,1.948E3,4.8E2,2.99E2,2.4515E3,5.5E0,2.024592E4,6.25E2,6.4432906E5,8.758674E4,1.066E3,2.565E3,2.595E3,3.225E3,1.48171045E4,5.939E3,4.823E3,4.952E3,6.3575E3,4.5E0,1.4867597E4,8.738726E3,3.2518576E4,1.8205678E4,2.4323111E4,5.3131945E4,2.8736882E3,2.7078076E4,2.6066662E4,3.633376E4,1.362678E4,2.2298396E4,3.8988402E4,8.604949E4,1.0125745E4,4.635091E4,2.2864213E4,4.1406277E4,6.688838E4,3.4983355E4,9.8541234E4,2.0422895E5,-4.058198E4,6.810006E4,5.3481043E4,8.87119E4,2.531078E5,2.6936775E4,8.691073E4,4.2375184E5,1.8356272E5,4.493141E4,2.2839973E5,7.899987E4,1.289422E5,2.1144262E4,2.9445584E5,8.047402E4,7.2456555E4,6.428831E3,2.7150572E5,9.704315E4,1.0437422E5,5.431897E4,3.88877E5,1.8928523E5,1.1352412E5,-4.8347734E4,1.0543935E5,4.8052516E5,2.930428E5,1.0793169E6],"split_indices":[1,1,1,1,2,2,3,3,3,3,3,3,0,1,1,3,3,3,3,1,3,1,3,2,3,3,1,3,0,0,2,3,3,3,3,3,2,3,4,3,3,1,3,4,4,3,2,0,4,0,0,3,3,3,1,0,1,1,1,1,0,0,0,0,0,0,0,0,0,0,0,0,0,0,0,0,0,0,0,0,0,0,0,0,0,0,0,0,0,0,0,0,0,0,0,0,0,0,0,0,0,0,0,0,0,0,0,0,0,0,0,0,0],"split_type":[0,0,0,0,0,0,0,0,0,0,0,0,0,0,0,0,0,0,0,0,0,0,0,0,0,0,0,0,0,0,0,0,0,0,0,0,0,0,0,0,0,0,0,0,0,0,0,0,0,0,0,0,0,0,0,0,0,0,0,0,0,0,0,0,0,0,0,0,0,0,0,0,0,0,0,0,0,0,0,0,0,0,0,0,0,0,0,0,0,0,0,0,0,0,0,0,0,0,0,0,0,0,0,0,0,0,0,0,0,0,0,0,0],"sum_hessian":[2.784E3,2.323E3,4.61E2,1.341E3,9.82E2,3.57E2,1.04E2,7.5E2,5.91E2,8.72E2,1.1E2,2.2E1,3.35E2,4E1,6.4E1,5.11E2,2.39E2,3.95E2,1.96E2,5.55E2,3.17E2,7.9E1,3.1E1,1.6E1,6E0,8E1,2.55E2,2.5E1,1.5E1,4.3E1,2.1E1,1.03E2,4.08E2,1.84E2,5.5E1,3.31E2,6.4E1,1.46E2,5E1,3.04E2,2.51E2,3.9E1,2.78E2,7.2E1,7E0,8E0,2.3E1,1E0,1.5E1,4E0,2E0,4.1E1,3.9E1,1.21E2,1.34E2,2E0,2.3E1,3.3E1,1E1,1.8E1,3E0,6.1E1,4.2E1,3.6E1,3.72E2,1.57E2,2.7E1,2.9E1,2.6E1,1.58E2,1.73E2,3.7E1,2.7E1,1.22E2,2.4E1,3.4E1,1.6E1,8.6E1,2.18E2,1.93E2,5.8E1,2.1E1,1.8E1,1E1,2.68E2,4.9E1,2.3E1,3E0,4E0,1E0,7E0,1.4E1,9E0,1.3E1,2E0,3E1,1.1E1,2.9E1,1E1,1.11E2,1E1,3E0,1.31E2,1.9E1,4E0,1.6E1,1.7E1,8E0,2E0,5E0,1.3E1,1E0,2E0],"tree_param":{"num_deleted":"0","num_feature":"6","num_nodes":"113","size_leaf_vector":"0"}},{"base_weights":[5.4528444E5,4.231396E5,1.6768305E6,2.9715188E5,7.6963244E5,1.5740788E6,5.9526845E6,2.2505264E5,4.4503628E5,1.3535556E6,6.183832E5,1.1279946E6,2.4338878E6,1.4108898E6,6.5788655E6,1.8018605E5,2.7980788E5,3.4574644E5,5.983961E5,1.095113E6,2.278269E6,1.1789988E6,5.8267394E5,1.3149632E6,5.5033206E5,3.4373532E6,1.3540368E6,1.4247325E5,2.0679452E5,2.3802016E5,3.7220347E5,6.264593E5,3.2527575E5,9.901222E5,4.5619372E5,9.225857E5,2.199935E6,4.6403555E6,1.5928195E6,9.762236E5,1.8611915E6,3.0472175E5,6.367483E5,8.9910725E5,2.0567612E6,2.5344145E5,8.77567E5,2.9615105E6,6.7469595E6,8.123556E5,4.1785408E6,1.0192689E5,1.5608125E5,1.8116239E5,2.5688936E5,2.5717142E5,1.5492195E5,4.3813925E5,1.8752027E5,2.2028105E5,7.2175456E5,3.8043117E4,3.354816E5,5.624357E5,1.1803911E6,7.803231E5,3.6958762E5,4.7139812E5,1.1205285E6,3.58789E5,2.3139625E6,6.723845E5,2.2022458E6,6.5467244E5,1.5108566E6,2.082255E6,3.7793725E5,1.2809835E5,3.3525703E5,7.688008E5,4.7524403E5,6.255433E5,1.3731085E6,2.7811418E6,1.2466824E6,4.1423356E5,1.1139329E4,1.3837E6,4.5966203E5,4.3415005E6,2.1931875E6,2.8944845E6,1.107843E7,4.7952394E5,1.3129181E6,5.0714575E6,-5.8948E5],"categories":[],"categories_nodes":[],"categories_segments":[],"categories_sizes":[],"default_left":[1,1,1,1,1,1,1,1,1,1,1,1,1,0,0,1,1,1,1,1,1,1,1,1,1,1,1,1,1,1,1,1,1,1,1,1,1,0,1,1,1,1,1,1,1,1,1,1,1,1,1,0,0,0,0,0,0,0,0,0,0,0,0,0,0,0,0,0,0,0,0,0,0,0,0,0,0,0,0,0,0,0,0,0,0,0,0,0,0,0,0,0,0,0,0,0,0],"id":12,"left_children":[1,3,5,7,9,11,13,15,17,19,21,23,25,-1,-1,27,29,31,33,35,37,39,41,43,45,47,49,51,53,55,57,59,61,63,65,67,69,-1,71,73,75,77,79,81,83,85,87,89,91,93,95,-1,-1,-1,-1,-1,-1,-1,-1,-1,-1,-1,-1,-1,-1,-1,-1,-1,-1,-1,-1,-1,-1,-1,-1,-1,-1,-1,-1,-1,-1,-1,-1,-1,-1,-1,-1,-1,-1,-1,-1,-1,-1,-1,-1,-1,-1],"loss_changes":[3.842122E14,1.0956076E14,1.096942E14,1.9582534E13,5.833599E13,9.927817E13,7.78186E12,3.003239E12,8.990264E12,3.0246032E13,1.0003281E13,1.8393164E13,9.286907E13,0E0,0E0,6.5892306E11,2.0658499E12,1.9166417E12,1.2694548E13,1.874708E13,3.9562403E13,2.4713468E12,7.381136E12,3.917876E13,4.1494732E12,5.246195E13,6.5454664E13,1.4244486E11,4.670756E11,5.760436E11,2.0123243E12,7.699767E11,1.0015201E12,4.3813825E12,4.624128E12,8.0454804E12,2.1089506E12,0E0,1.1981734E13,3.4805928E12,1.1803988E12,4.1008706E11,8.613305E12,1.0422317E13,2.411265E13,9.693925E11,3.8057898E12,3.5009956E13,5.136806E13,5.8679445E12,3.2791647E13,0E0,0E0,0E0,0E0,0E0,0E0,0E0,0E0,0E0,0E0,0E0,0E0,0E0,0E0,0E0,0E0,0E0,0E0,0E0,0E0,0E0,0E0,0E0,0E0,0E0,0E0,0E0,0E0,0E0,0E0,0E0,0E0,0E0,0E0,0E0,0E0,0E0,0E0,0E0,0E0,0E0,0E0,0E0,0E0,0E0,0E0],"parents":[2147483647,0,0,1,1,2,2,3,3,4,4,5,5,6,6,7,7,8,8,9,9,10,10,11,11,12,12,15,15,16,16,17,17,18,18,19,19,20,20,21,21,22,22,23,23,24,24,25,25,26,26,27,27,28,28,29,29,30,30,31,31,32,32,33,33,34,34,35,35,36,36,38,38,39,39,40,40,41,41,42,42,43,43,44,44,45,45,46,46,47,47,48,48,49,49,50,50],"right_children":[2,4,6,8,10,12,14,16,18,20,22,24,26,-1,-1,28,30,32,34,36,38,40,42,44,46,48,50,52,54,56,58,60,62,64,66,68,70,-1,72,74,76,78,80,82,84,86,88,90,92,94,96,-1,-1,-1,-1,-1,-1,-1,-1,-1,-1,-1,-1,-1,-1,-1,-1,-1,-1,-1,-1,-1,-1,-1,-1,-1,-1,-1,-1,-1,-1,-1,-1,-1,-1,-1,-1,-1,-1,-1,-1,-1,-1,-1,-1,-1,-1],"split_conditions":[3.1865E3,1.8305E3,1.17245E4,1.1795E3,3.5E0,1.785E3,6.225E2,8.305E2,1.7865E3,2.47E3,2.5E0,1.3925E3,5.5E0,1.4108898E5,6.5788656E5,6.265E2,1.8815E3,2.45E1,1.9945E3,2.775E3,2.4925E3,5.62E2,5.585E2,7.76E2,1.6185E3,4E0,6.3575E3,4.75E2,1.7715E3,1.465E3,2.555E3,7.6E1,4.6E1,1.8455E3,2.5E0,3.375E2,9.55E1,4.6403556E5,4E0,2.4945E3,2.1405E3,4.03E2,6.04E2,5.127E3,9.89E2,1.518E3,1.7055E3,2.1055E3,4.5E0,4.456E3,8.5975E3,1.0192689E4,1.5608125E4,1.811624E4,2.5688936E4,2.5717143E4,1.5492195E4,4.3813926E4,1.8752027E4,2.2028105E4,7.217546E4,3.8043118E3,3.354816E4,5.624357E4,1.1803912E5,7.803231E4,3.695876E4,4.7139812E4,1.1205285E5,3.5878902E4,2.3139625E5,6.723845E4,2.2022458E5,6.5467246E4,1.5108567E5,2.082255E5,3.7793727E4,1.2809835E4,3.3525703E4,7.6880086E4,4.7524402E4,6.2554332E4,1.3731086E5,2.781142E5,1.2466824E5,4.1423355E4,1.113933E3,1.3837E5,4.5966203E4,4.3415006E5,2.1931875E5,2.8944847E5,1.107843E6,4.7952395E4,1.3129181E5,5.0714575E5,-5.8948E4],"split_indices":[1,1,1,1,0,3,3,1,3,3,2,3,0,0,0,1,3,4,3,1,3,4,3,3,3,2,1,1,3,3,3,3,4,3,0,4,4,0,2,1,3,4,4,1,3,3,3,3,0,1,1,0,0,0,0,0,0,0,0,0,0,0,0,0,0,0,0,0,0,0,0,0,0,0,0,0,0,0,0,0,0,0,0,0,0,0,0,0,0,0,0,0,0,0,0,0,0],"split_type":[0,0,0,0,0,0,0,0,0,0,0,0,0,0,0,0,0,0,0,0,0,0,0,0,0,0,0,0,0,0,0,0,0,0,0,0,0,0,0,0,0,0,0,0,0,0,0,0,0,0,0,0,0,0,0,0,0,0,0,0,0,0,0,0,0,0,0,0,0,0,0,0,0,0,0,0,0,0,0,0,0,0,0,0,0,0,0,0,0,0,0,0,0,0,0,0,0],"sum_hessian":[2.784E3,2.514E3,2.7E2,1.845E3,6.69E2,2.65E2,5E0,1.242E3,6.03E2,1.36E2,5.33E2,1.76E2,8.9E1,1E0,4E0,6.85E2,5.57E2,3.68E2,2.35E2,1.08E2,2.8E1,3E1,5.03E2,1.32E2,4.4E1,4.5E1,4.4E1,2.86E2,3.99E2,3.86E2,1.71E2,2.3E1,3.45E2,6.1E1,1.74E2,9.5E1,1.3E1,5E0,2.3E1,2.5E1,5E0,8.3E1,4.2E2,8.6E1,4.6E1,2.4E1,2E1,4.1E1,4E0,3.8E1,6E0,7.4E1,2.12E2,2.67E2,1.32E2,3.12E2,7.4E1,1.25E2,4.6E1,5E0,1.8E1,1.2E1,3.33E2,2E1,4.1E1,3.5E1,1.39E2,3E1,6.5E1,1E0,1.2E1,1E1,1.3E1,1.7E1,8E0,4E0,1E0,1.3E1,7E1,2.29E2,1.91E2,5.6E1,3E1,2.3E1,2.3E1,1.4E1,1E1,8E0,1.2E1,1.3E1,2.8E1,3E0,1E0,2.4E1,1.4E1,5E0,1E0],"tree_param":{"num_deleted":"0","num_feature":"6","num_nodes":"97","size_leaf_vector":"0"}},{"base_weights":[4.9316612E5,3.8801684E5,1.5915258E6,2.6775856E5,7.0550794E5,1.4865432E6,5.4905785E6,2.0268686E5,4.012294E5,6.2045444E5,1.4718586E6,1.2470332E6,2.9366198E6,1.3403452E6,6.052556E6,1.6632903E5,2.576606E5,3.115283E5,5.3978225E5,1.098144E6,5.377682E5,2.1720948E6,1.0978738E6,1.0412449E6,2.1898882E6,5.5798605E6,9.3952E5,1.2900012E5,1.899281E5,2.1895588E5,3.447057E5,5.677385E5,2.9285612E5,8.93921E5,4.1123147E5,6.91342E5,1.5456315E6,4.414675E5,7.196545E5,1.0818444E6,3.4812355E6,1.5325896E6,6.1741306E5,1.1545252E6,3.6508403E5,4.1086125E6,1.0593338E6,2.730958E6,8.0386265E6,1.34502E6,-1.01873475E6,9.18701E4,1.410717E5,9.310664E4,2.0236866E5,2.3666612E5,1.4494155E5,8.959827E5,3.1951694E5,2.0192428E5,6.533778E5,3.453144E4,3.0203388E5,5.0887034E5,1.0651625E6,3.464779E5,8.241037E5,5.271463E5,1.2255679E6,4.6363225E5,1.7431415E6,4.4981147E5,-4.0316866E5,3.6078044E5,8.225351E5,3.8455903E5,2.260046E6,2.0676515E6,8.2522344E5,1.557893E5,9.96034E5,9.4499175E5,3.2255228E6,5.9978675E5,-2.379705E5,-3.9230225E5,4.5163805E6,5.020365E5,3.0766558E6,-3.58472E5,3.2235155E6,8.720621E6,1.97333E6,1.0615858E5,2.7254692E6],"categories":[],"categories_nodes":[],"categories_segments":[],"categories_sizes":[],"default_left":[1,1,1,1,1,1,1,1,1,1,1,1,1,0,0,1,1,1,1,1,1,1,1,1,1,1,1,1,1,1,1,1,1,1,1,1,1,1,1,1,0,1,1,1,1,1,1,1,1,1,0,0,0,0,0,0,0,0,0,0,0,0,0,0,0,0,0,0,0,0,0,0,0,0,0,0,0,0,0,0,0,0,0,0,0,0,0,0,0,0,0,0,0,0,0],"id":13,"left_children":[1,3,5,7,9,11,13,15,17,19,21,23,25,-1,-1,27,29,31,33,35,37,39,41,43,45,47,49,51,53,55,57,59,61,63,65,67,69,71,73,75,-1,77,79,81,83,85,87,89,91,93,-1,-1,-1,-1,-1,-1,-1,-1,-1,-1,-1,-1,-1,-1,-1,-1,-1,-1,-1,-1,-1,-1,-1,-1,-1,-1,-1,-1,-1,-1,-1,-1,-1,-1,-1,-1,-1,-1,-1,-1,-1,-1,-1,-1,-1],"loss_changes":[3.2102686E14,9.69052E13,9.130584E13,1.5951509E13,4.458297E13,7.89972E13,5.8815215E12,2.441563E12,7.3385556E12,2.4293426E13,1.5684868E13,3.768968E13,1.6895854E14,0E0,0E0,6.37077E11,1.58547E12,1.5990281E12,1.0376255E13,1.5679005E13,9.123299E12,2.9061544E13,8.870362E12,1.2676378E13,7.373962E13,7.61138E13,1.7251661E13,1.1881572E11,5.3282655E11,4.1661707E11,1.7966154E12,6.199412E11,8.0988026E11,3.5460408E12,4.3930805E12,3.739824E12,8.3811673E12,2.6832515E12,6.5336687E12,1.0632479E13,0E0,7.377357E12,4.0395593E12,6.030765E13,3.822734E12,2.5631056E13,2.543736E13,1.3329309E13,1.1746836E13,2.878382E13,0E0,0E0,0E0,0E0,0E0,0E0,0E0,0E0,0E0,0E0,0E0,0E0,0E0,0E0,0E0,0E0,0E0,0E0,0E0,0E0,0E0,0E0,0E0,0E0,0E0,0E0,0E0,0E0,0E0,0E0,0E0,0E0,0E0,0E0,0E0,0E0,0E0,0E0,0E0,0E0,0E0,0E0,0E0,0E0,0E0],"parents":[2147483647,0,0,1,1,2,2,3,3,4,4,5,5,6,6,7,7,8,8,9,9,10,10,11,11,12,12,15,15,16,16,17,17,18,18,19,19,20,20,21,21,22,22,23,23,24,24,25,25,26,26,27,27,28,28,29,29,30,30,31,31,32,32,33,33,34,34,35,35,36,36,37,37,38,38,39,39,41,41,42,42,43,43,44,44,45,45,46,46,47,47,48,48,49,49],"right_children":[2,4,6,8,10,12,14,16,18,20,22,24,26,-1,-1,28,30,32,34,36,38,40,42,44,46,48,50,52,54,56,58,60,62,64,66,68,70,72,74,76,-1,78,80,82,84,86,88,90,92,94,-1,-1,-1,-1,-1,-1,-1,-1,-1,-1,-1,-1,-1,-1,-1,-1,-1,-1,-1,-1,-1,-1,-1,-1,-1,-1,-1,-1,-1,-1,-1,-1,-1,-1,-1,-1,-1,-1,-1,-1,-1,-1,-1,-1,-1],"split_conditions":[3.3555E3,1.8305E3,1.17245E4,1.1795E3,4E0,2.3395E3,6.225E2,8.645E2,1.7865E3,2.5E0,3.255E2,6.53E2,2.5385E3,1.3403453E5,6.052556E5,6.305E2,1.8815E3,2.45E1,1.9945E3,4.905E2,2.5905E3,2.4585E3,3.5E0,6.035E2,5.5E0,2.4705E3,2.826E3,4.75E2,2.38E2,1.465E3,1.9135E3,7.6E1,4.6E1,1.8455E3,4E0,2.4885E3,7.255E2,2.7965E3,8.365E2,2.5105E3,3.4812356E5,5.255E2,4.99E2,5.775E2,1.7495E3,1.0635E3,5.088E3,3.602E3,2.4995E3,2.712E3,-1.0187348E5,9.187011E3,1.4107171E4,9.310664E3,2.0236865E4,2.3666613E4,1.4494155E4,8.959827E4,3.1951693E4,2.0192428E4,6.533778E4,3.4531443E3,3.0203389E4,5.0887035E4,1.0651625E5,3.4647793E4,8.241037E4,5.2714633E4,1.2255679E5,4.6363227E4,1.7431416E5,4.498115E4,-4.0316867E4,3.6078043E4,8.2253516E4,3.8455902E4,2.2600461E5,2.0676516E5,8.252234E4,1.557893E4,9.96034E4,9.449918E4,3.2255228E5,5.9978676E4,-2.379705E4,-3.9230227E4,4.5163806E5,5.0203652E4,3.076656E5,-3.58472E4,3.2235156E5,8.720621E5,1.97333E5,1.0615858E4,2.7254694E5],"split_indices":[1,1,1,1,2,3,3,1,3,2,4,4,3,0,0,1,3,4,3,4,1,1,0,4,0,3,3,1,3,3,3,3,4,3,2,1,3,3,3,3,0,4,4,4,3,3,1,1,3,3,0,0,0,0,0,0,0,0,0,0,0,0,0,0,0,0,0,0,0,0,0,0,0,0,0,0,0,0,0,0,0,0,0,0,0,0,0,0,0,0,0,0,0,0,0],"split_type":[0,0,0,0,0,0,0,0,0,0,0,0,0,0,0,0,0,0,0,0,0,0,0,0,0,0,0,0,0,0,0,0,0,0,0,0,0,0,0,0,0,0,0,0,0,0,0,0,0,0,0,0,0,0,0,0,0,0,0,0,0,0,0,0,0,0,0,0,0,0,0,0,0,0,0,0,0,0,0,0,0,0,0,0,0,0,0,0,0,0,0,0,0,0,0],"sum_hessian":[2.784E3,2.542E3,2.42E2,1.845E3,6.97E2,2.37E2,5E0,1.242E3,6.03E2,6.29E2,6.8E1,2.05E2,3.2E1,1E0,4E0,7.5E2,4.92E2,3.68E2,2.35E2,9.1E1,5.38E2,2.2E1,4.6E1,1.7E2,3.5E1,1.3E1,1.9E1,2.93E2,4.57E2,3.43E2,1.49E2,2.3E1,3.45E2,6.1E1,1.74E2,4.9E1,4.2E1,3.54E2,1.84E2,1.3E1,9E0,2.3E1,2.3E1,1.45E2,2.5E1,1.2E1,2.3E1,7E0,6E0,1.6E1,3E0,7.4E1,2.19E2,5.3E1,4.04E2,2.75E2,6.8E1,5E0,1.44E2,5E0,1.8E1,1.2E1,3.33E2,2E1,4.1E1,1.52E2,2.2E1,3.9E1,1E1,7E0,3.5E1,3.51E2,3E0,4.2E1,1.42E2,9E0,4E0,1.2E1,1.1E1,1.1E1,1.2E1,1.33E2,1.2E1,1.8E1,7E0,1E0,1.1E1,1.9E1,4E0,1E0,6E0,5E0,1E0,9E0,7E0],"tree_param":{"num_deleted":"0","num_feature":"6","num_nodes":"95","size_leaf_vector":"0"}},{"base_weights":[4.4587544E5,3.6070938E5,1.5877909E6,2.4946503E5,6.8026794E5,1.4683789E6,5.0647355E6,1.8512758E5,3.7775134E5,1.2561238E6,5.5593594E5,1.04855194E6,2.3046635E6,1.273328E6,5.5683515E6,1.4584745E5,2.2980377E5,2.9818438E5,5.1428572E5,9.882621E5,2.1659315E6,1.1349981E6,5.2282766E5,5.465723E5,1.2730648E6,3.6523225E6,1.2299008E6,1.2724534E5,1.8573519E5,2.0940552E5,3.6336894E5,2.6856188E5,4.795871E5,9.5253756E5,3.9965606E5,7.932473E5,1.7060435E6,4.2515085E6,1.3276831E6,9.057474E5,3.77701E6,5.040383E5,1.5419919E6,-3.44788E4,6.103205E5,1.745835E6,5.2078203E5,3.9874268E6,-3.5765225E5,6.500722E5,3.53918E6,1.3708577E5,6.9875586E4,3.0070134E5,1.5542161E5,2.1916436E5,8.957212E4,7.680487E5,1.5799081E5,1.4127308E5,3.109385E5,3.5722362E5,8.568491E5,1.336022E6,5.133856E5,7.007512E5,3.286302E5,3.1117525E5,9.512508E5,9.2846375E5,2.9063998E6,2.0067564E5,1.7963524E6,2.799934E5,1.0636805E6,7.2072125E5,4.4891178E5,9.026364E5,2.519824E6,-1.4698888E5,3.0395938E4,3.324039E5,7.470085E5,9.721761E5,2.1495805E6,2.6686356E5,7.457682E5,1.5522204E6,4.6747435E6,-1.0205869E6,4.841085E5,1.9038188E5,1.0970704E6,4.331462E6,-6.072555E5],"categories":[],"categories_nodes":[],"categories_segments":[],"categories_sizes":[],"default_left":[1,1,1,1,1,1,1,1,1,1,1,1,1,0,0,1,1,1,1,1,1,1,1,1,1,1,1,1,1,1,1,1,1,1,1,1,1,0,1,1,0,1,1,1,1,1,1,1,1,1,1,0,0,0,0,0,0,0,0,0,0,0,0,0,0,0,0,0,0,0,0,0,0,0,0,0,0,0,0,0,0,0,0,0,0,0,0,0,0,0,0,0,0,0,0],"id":14,"left_children":[1,3,5,7,9,11,13,15,17,19,21,23,25,-1,-1,27,29,31,33,35,37,39,41,43,45,47,49,51,53,55,57,59,61,63,65,67,69,-1,71,73,-1,75,77,79,81,83,85,87,89,91,93,-1,-1,-1,-1,-1,-1,-1,-1,-1,-1,-1,-1,-1,-1,-1,-1,-1,-1,-1,-1,-1,-1,-1,-1,-1,-1,-1,-1,-1,-1,-1,-1,-1,-1,-1,-1,-1,-1,-1,-1,-1,-1,-1,-1],"loss_changes":[2.7027528E14,9.200907E13,7.269454E13,1.5818272E13,4.720028E13,6.3589273E13,4.3661362E12,2.2197557E12,6.821096E12,2.6616382E13,9.989406E12,1.3617177E13,8.530966E13,0E0,0E0,4.8537534E11,1.5558813E12,2.0636269E12,1.1424928E13,1.1664645E13,3.9809356E13,1.4143797E13,9.257081E12,1.5397227E12,3.0032945E13,3.770763E13,4.5902778E13,2.5632021E11,7.060319E11,5.9081176E11,6.36142E12,1.8601801E12,2.2790474E12,7.397691E12,3.7901933E12,5.4166794E12,1.5035594E13,0E0,1.0203391E13,2.469342E12,0E0,5.840065E12,3.352159E12,4.0963174E10,1.157242E12,1.4465366E13,1.8004658E12,3.458774E13,2.1681719E12,5.9555594E12,2.5626325E13,0E0,0E0,0E0,0E0,0E0,0E0,0E0,0E0,0E0,0E0,0E0,0E0,0E0,0E0,0E0,0E0,0E0,0E0,0E0,0E0,0E0,0E0,0E0,0E0,0E0,0E0,0E0,0E0,0E0,0E0,0E0,0E0,0E0,0E0,0E0,0E0,0E0,0E0,0E0,0E0,0E0,0E0,0E0,0E0],"parents":[2147483647,0,0,1,1,2,2,3,3,4,4,5,5,6,6,7,7,8,8,9,9,10,10,11,11,12,12,15,15,16,16,17,17,18,18,19,19,20,20,21,21,22,22,23,23,24,24,25,25,26,26,27,27,28,28,29,29,30,30,31,31,32,32,33,33,34,34,35,35,36,36,38,38,39,39,41,41,42,42,43,43,44,44,45,45,46,46,47,47,48,48,49,49,50,50],"right_children":[2,4,6,8,10,12,14,16,18,20,22,24,26,-1,-1,28,30,32,34,36,38,40,42,44,46,48,50,52,54,56,58,60,62,64,66,68,70,-1,72,74,-1,76,78,80,82,84,86,88,90,92,94,-1,-1,-1,-1,-1,-1,-1,-1,-1,-1,-1,-1,-1,-1,-1,-1,-1,-1,-1,-1,-1,-1,-1,-1,-1,-1,-1,-1,-1,-1,-1,-1,-1,-1,-1,-1,-1,-1,-1,-1,-1,-1,-1,-1],"split_conditions":[3.6905E3,1.9145E3,1.17245E4,1.2145E3,3.5E0,1.785E3,6.225E2,8.305E2,1.822E3,2.47E3,2.5E0,5.11E2,5.5E0,1.27332805E5,5.568352E5,1.7865E3,2.428E3,4.5E0,2.5E0,2.775E3,2.493E3,3.517E3,5.5E0,3.385E2,1.3695E3,2.7885E3,6.3575E3,1.4685E3,2.003E3,2.235E3,2.5455E3,5.56E2,5.68E2,5.255E2,1.9945E3,2.1E2,4E0,4.2515084E5,2.5E0,2.077E3,3.77701E5,3.75E2,5.82E2,4.5E0,4.4215E3,6.565E2,1.6185E3,5.145E2,3.5E0,4.456E3,8.5975E3,1.3708577E4,6.9875586E3,3.0070135E4,1.5542161E4,2.1916436E4,8.957212E3,7.680487E4,1.5799081E4,1.4127308E4,3.109385E4,3.5722363E4,8.5684914E4,1.336022E5,5.133856E4,7.007512E4,3.286302E4,3.1117525E4,9.5125086E4,9.2846375E4,2.9063997E5,2.0067564E4,1.7963523E5,2.7999342E4,1.06368055E5,7.2072125E4,4.489118E4,9.026364E4,2.519824E5,-1.4698888E4,3.0395938E3,3.324039E4,7.470085E4,9.721762E4,2.1495805E5,2.6686357E4,7.457682E4,1.5522205E5,4.6747434E5,-1.0205869E5,4.841085E4,1.9038188E4,1.0970704E5,4.3314622E5,-6.072555E4],"split_indices":[1,1,1,1,0,3,3,1,3,3,2,3,0,0,0,3,3,2,0,1,3,1,2,3,3,3,1,3,3,3,3,3,4,4,3,4,2,0,2,1,0,4,4,0,1,3,3,4,0,1,1,0,0,0,0,0,0,0,0,0,0,0,0,0,0,0,0,0,0,0,0,0,0,0,0,0,0,0,0,0,0,0,0,0,0,0,0,0,0,0,0,0,0,0,0],"split_type":[0,0,0,0,0,0,0,0,0,0,0,0,0,0,0,0,0,0,0,0,0,0,0,0,0,0,0,0,0,0,0,0,0,0,0,0,0,0,0,0,0,0,0,0,0,0,0,0,0,0,0,0,0,0,0,0,0,0,0,0,0,0,0,0,0,0,0,0,0,0,0,0,0,0,0,0,0,0,0,0,0,0,0,0,0,0,0,0,0,0,0,0,0,0,0],"sum_hessian":[2.784E3,2.592E3,1.92E2,1.924E3,6.68E2,1.87E2,5E0,1.283E3,6.41E2,1.17E2,5.51E2,1.26E2,6.1E1,1E0,4E0,6.85E2,5.98E2,4.07E2,2.34E2,9.2E1,2.5E1,2.8E1,5.23E2,4E1,8.6E1,2.6E1,3.5E1,4.7E2,2.15E2,5.21E2,7.7E1,3.52E2,5.5E1,4.7E1,1.87E2,7.4E1,1.8E1,6E0,1.9E1,2.7E1,1E0,5.15E2,8E0,4E0,3.6E1,5.2E1,3.4E1,2.4E1,2E0,2.9E1,6E0,4E2,7E1,4.3E1,1.72E2,4.81E2,4E1,2.5E1,5.2E1,8.9E1,2.63E2,4.3E1,1.2E1,2.4E1,2.3E1,3.4E1,1.53E2,1.9E1,5.5E1,1.2E1,6E0,6E0,1.3E1,6E0,2.1E1,1.02E2,4.13E2,6E0,2E0,1E0,3E0,1.3E1,2.3E1,1.9E1,3.3E1,1.7E1,1.7E1,6E0,1.8E1,1E0,1E0,1.5E1,1.4E1,5E0,1E0],"tree_param":{"num_deleted":"0","num_feature":"6","num_nodes":"95","size_leaf_vector":"0"}},{"base_weights":[4.0308834E5,3.4681216E5,1.8361679E6,2.4509934E5,7.247595E5,8.07927E5,2.4565018E6,1.6676264E5,3.658445E5,1.5435432E6,6.158838E5,6.195702E5,1.2653029E6,2.060526E6,5.443083E6,1.3438075E5,2.1199116E5,2.8787534E5,5.0076144E5,1.2142939E6,2.679734E6,1.580427E6,5.6637356E5,6.645375E3,6.6161175E5,1.6555465E6,3.6772048E6,3.0653502E6,9.85474E6,1.0150377E5,1.5519178E5,1.7920534E5,2.8054116E5,5.483019E5,2.727761E5,9.291376E5,3.889429E5,1.4148645E6,-9.077356E4,3.93317E6,8.644169E5,9.8193144E5,3.6583235E6,8.308544E5,4.6988928E5,8.675744E4,-7.6789375E4,4.1305175E5,7.706932E5,1.7909844E6,-1.0181617E6,4.7241295E6,1.4760695E6,3.5634102E6,2.87525E5,1.9644012E4,1.0614446E5,6.853773E4,1.6636247E5,2.0380125E5,1.220449E5,2.959698E5,-1.9307583E5,1.7332452E5,6.222828E5,2.7833603E5,-1.0534025E5,1.635249E6,7.783782E5,3.0510038E5,9.1069994E5,5.937511E5,1.7930241E6,5.2593225E5,-2.5400758E5,1.1117335E6,-3.0974125E5,1.0750576E6,-3.937325E5,5.3359095E6,7.612963E5,7.3511975E5,3.0197562E6,3.331014E5,6.2455475E5,4.988757E5,1.7896E4,8.118336E5,1.5083E4,1.1074145E6,2.5174315E6,5.380777E6,2.055007E6,2.1335332E6,-5.7689275E5],"categories":[],"categories_nodes":[],"categories_segments":[],"categories_sizes":[],"default_left":[1,1,1,1,1,1,1,1,1,1,1,1,0,1,1,1,1,1,1,1,1,1,1,1,1,1,1,1,0,1,1,1,1,1,1,1,1,1,1,0,1,1,1,1,1,0,0,1,1,1,0,1,1,0,0,0,0,0,0,0,0,0,0,0,0,0,0,0,0,0,0,0,0,0,0,0,0,0,0,0,0,0,0,0,0,0,0,0,0,0,0,0,0,0,0],"id":15,"left_children":[1,3,5,7,9,11,13,15,17,19,21,23,-1,25,27,29,31,33,35,37,39,41,43,45,47,49,51,53,-1,55,57,59,61,63,65,67,69,71,73,-1,75,77,79,81,83,-1,-1,85,87,89,-1,91,93,-1,-1,-1,-1,-1,-1,-1,-1,-1,-1,-1,-1,-1,-1,-1,-1,-1,-1,-1,-1,-1,-1,-1,-1,-1,-1,-1,-1,-1,-1,-1,-1,-1,-1,-1,-1,-1,-1,-1,-1,-1,-1],"loss_changes":[2.2396849E14,1.0288564E14,6.498987E13,1.9934847E13,4.968408E13,2.7482003E12,6.565428E13,1.8520369E12,8.597434E12,2.1435964E13,2.312553E13,7.9442005E11,0E0,3.2540786E13,4.3219954E13,4.980841E11,1.1498747E12,1.930592E12,1.4152437E13,1.400161E13,2.8455467E13,2.6254464E13,1.1858354E13,2.671444E10,4.679501E11,1.956746E13,1.8375497E13,7.276572E12,0E0,1.0960162E11,4.3193572E11,4.86879E11,1.3066893E12,6.6889554E11,1.0846722E12,5.32724E12,1.0308538E13,1.3218945E13,9.389297E11,0E0,2.3770715E12,2.985491E12,2.0237852E13,2.4393451E13,7.281312E12,0E0,0E0,3.6412405E11,5.783903E11,2.0551284E13,0E0,1.2111808E12,7.9795627E12,0E0,0E0,0E0,0E0,0E0,0E0,0E0,0E0,0E0,0E0,0E0,0E0,0E0,0E0,0E0,0E0,0E0,0E0,0E0,0E0,0E0,0E0,0E0,0E0,0E0,0E0,0E0,0E0,0E0,0E0,0E0,0E0,0E0,0E0,0E0,0E0,0E0,0E0,0E0,0E0,0E0,0E0],"parents":[2147483647,0,0,1,1,2,2,3,3,4,4,5,5,6,6,7,7,8,8,9,9,10,10,11,11,13,13,14,14,15,15,16,16,17,17,18,18,19,19,20,20,21,21,22,22,23,23,24,24,25,25,26,26,27,27,29,29,30,30,31,31,32,32,33,33,34,34,35,35,36,36,37,37,38,38,40,40,41,41,42,42,43,43,44,44,47,47,48,48,49,49,51,51,52,52],"right_children":[2,4,6,8,10,12,14,16,18,20,22,24,-1,26,28,30,32,34,36,38,40,42,44,46,48,50,52,54,-1,56,58,60,62,64,66,68,70,72,74,-1,76,78,80,82,84,-1,-1,86,88,90,-1,92,94,-1,-1,-1,-1,-1,-1,-1,-1,-1,-1,-1,-1,-1,-1,-1,-1,-1,-1,-1,-1,-1,-1,-1,-1,-1,-1,-1,-1,-1,-1,-1,-1,-1,-1,-1,-1,-1,-1,-1,-1,-1,-1],"split_conditions":[4.4535E3,2.2085E3,6.31E2,1.2145E3,3.5E0,8.038E3,4E0,8.645E2,1.822E3,2.4555E3,2.5E0,1.74E2,1.2653029E5,6.699E3,2.291E3,6.305E2,1.849E3,2.45E1,2.0025E3,2.211E3,2.505E3,3.517E3,4.5E0,6E0,5.5E0,2.7975E3,1.9565E3,1.595E3,9.85474E5,3.835E2,2.38E2,1.197E3,3.5E0,7.9E1,1.8055E3,3.17E2,4E0,8.845E2,2.5E0,3.93317E5,5.5E0,3.247E3,3.8205E3,3.92E3,3.0385E3,8.675744E3,-7.6789375E3,5.896E3,8.015E3,1.858E3,-1.0181617E5,8E0,8.5975E3,3.5634103E5,2.87525E4,1.9644012E3,1.0614446E4,6.853773E3,1.6636248E4,2.0380125E4,1.220449E4,2.9596982E4,-1.9307584E4,1.7332451E4,6.222828E4,2.7833604E4,-1.0534025E4,1.635249E5,7.783782E4,3.0510037E4,9.106999E4,5.9375113E4,1.7930242E5,5.2593227E4,-2.5400758E4,1.1117335E5,-3.0974125E4,1.07505766E5,-3.937325E4,5.3359094E5,7.612963E4,7.351198E4,3.0197562E5,3.331014E4,6.2455477E4,4.988757E4,1.7896E3,8.118337E4,1.5083E3,1.1074145E5,2.5174316E5,5.380777E5,2.055007E5,2.1335333E5,-5.7689277E4],"split_indices":[1,1,3,1,0,1,2,1,3,3,2,3,0,1,3,1,3,4,3,3,3,1,0,0,0,3,3,3,0,1,3,3,0,3,3,4,2,3,2,0,2,1,1,1,1,0,0,1,1,3,0,0,1,0,0,0,0,0,0,0,0,0,0,0,0,0,0,0,0,0,0,0,0,0,0,0,0,0,0,0,0,0,0,0,0,0,0,0,0,0,0,0,0,0,0],"split_type":[0,0,0,0,0,0,0,0,0,0,0,0,0,0,0,0,0,0,0,0,0,0,0,0,0,0,0,0,0,0,0,0,0,0,0,0,0,0,0,0,0,0,0,0,0,0,0,0,0,0,0,0,0,0,0,0,0,0,0,0,0,0,0,0,0,0,0,0,0,0,0,0,0,0,0,0,0,0,0,0,0,0,0,0,0,0,0,0,0,0,0,0,0,0,0],"sum_hessian":[2.784E3,2.68E3,1.04E2,2.113E3,5.67E2,4E1,6.4E1,1.283E3,8.3E2,6.5E1,5.02E2,3E1,1E1,5.8E1,6E0,7.5E2,5.33E2,5.28E2,3.02E2,5.2E1,1.3E1,2.3E1,4.79E2,2E0,2.8E1,4.8E1,1E1,5E0,1E0,2.93E2,4.57E2,3.63E2,1.7E2,2.7E1,5.01E2,6.1E1,2.41E2,4.5E1,7E0,7E0,6E0,1.9E1,4E0,1.26E2,3.53E2,1E0,1E0,1E1,1.8E1,4.6E1,2E0,6E0,4E0,4E0,1E0,1.6E1,2.77E2,5.3E1,4.04E2,2.52E2,1.11E2,1.65E2,5E0,5E0,2.2E1,4.94E2,7E0,9E0,5.2E1,2.09E2,3.2E1,1.5E1,3E1,1E0,6E0,5E0,1E0,1.8E1,1E0,2E0,2E0,1.22E2,4E0,1.89E2,1.64E2,8E0,2E0,1.7E1,1E0,2.5E1,2.1E1,4E0,2E0,3E0,1E0],"tree_param":{"num_deleted":"0","num_feature":"6","num_nodes":"95","size_leaf_vector":"0"}},{"base_weights":[3.646537E5,2.482672E5,9.4780956E5,1.7771945E5,4.2463453E5,8.183313E5,2.1934495E6,1.378639E5,2.5040598E5,6.917038E5,3.1589275E5,2.3608178E6,7.191361E5,9.362003E6,1.7998649E6,1.1741548E5,1.8079123E5,2.17205E5,4.2222384E5,4.1304666E5,9.9338156E5,6.29537E5,2.8939256E5,1.4311448E6,3.8545535E6,6.7504144E5,2.2050918E6,1.3331111E6,4.3782015E6,6.5637914E4,1.29461836E5,2.9754316E5,1.5210603E5,2.3764348E5,-1.4510672E5,9.418459E5,1.6393469E5,3.1573872E5,6.9623325E5,1.9669788E6,8.758423E5,9.138239E5,4.493176E5,2.9695622E5,-4.2501266E5,1.567347E6,-3.74046E5,1.4709731E6,5.4672235E6,5.512473E5,1.01553244E6,6.3654875E4,2.41287E6,7.775302E5,1.9409988E6,1.1463965E6,4.7952835E6,-4.430066E4,7.263647E4,2.781188E5,1.1553493E5,1.7771897E5,4.4842594E5,-6.2998453E4,1.7259822E5,2.2686939E5,7.0840956E5,-2.8104394E5,4.8235137E4,7.0771094E5,1.52652E6,-2.2124673E3,4.6020622E5,4.3060244E5,8.707987E4,5.126922E5,1.3278589E6,1.0904814E6,2.78998E6,1.1424452E6,4.5801906E5,6.461161E5,2.0631584E6,3.510498E5,8.5289406E5,2.8667438E5,1.3305868E6,6.162964E5,1.9436159E6,1.8693888E6,-6.134475E4,2.0022335E6,5.2356584E5,4.6335978E5,1.5375569E6,2.7314875E5,2.620267E6,4.0081253E5,1.0835632E6,2.5208878E6,7.5245894E5],"categories":[],"categories_nodes":[],"categories_segments":[],"categories_sizes":[],"default_left":[1,1,1,1,1,1,1,1,1,1,1,1,1,0,1,1,1,1,1,1,1,1,1,1,1,1,1,1,1,1,1,1,1,1,1,1,1,1,1,1,1,1,1,1,0,1,0,1,0,1,1,0,1,1,1,0,0,0,0,0,0,0,0,0,0,0,0,0,0,0,0,0,0,0,0,0,0,0,0,0,0,0,0,0,0,0,0,0,0,0,0,0,0,0,0,0,0,0,0,0,0],"id":16,"left_children":[1,3,5,7,9,11,13,15,17,19,21,23,25,-1,27,29,31,33,35,37,39,41,43,45,47,49,51,53,55,57,59,61,63,65,67,69,71,73,75,77,79,81,83,85,-1,87,-1,89,-1,91,93,-1,95,97,99,-1,-1,-1,-1,-1,-1,-1,-1,-1,-1,-1,-1,-1,-1,-1,-1,-1,-1,-1,-1,-1,-1,-1,-1,-1,-1,-1,-1,-1,-1,-1,-1,-1,-1,-1,-1,-1,-1,-1,-1,-1,-1,-1,-1,-1,-1],"loss_changes":[1.8878673E14,2.8828039E13,7.287919E13,4.777329E12,1.9036075E13,6.27183E13,1.04471305E14,9.2240295E11,3.2568477E12,1.5646037E13,3.7492212E12,2.9200728E13,2.4524028E13,0E0,4.4708194E13,4.4745045E11,1.1101641E12,3.6926044E12,1.2461596E13,2.5633594E12,8.6909E12,1.433828E12,2.492956E12,4.7660673E12,2.6553216E13,1.5752531E13,4.7407925E12,1.0986853E13,2.590268E12,1.1093541E11,1.1935039E12,1.1316264E12,1.240694E12,2.2130134E12,7.231797E11,3.1633378E12,3.151397E12,1.9848783E12,2.2174478E12,3.4498067E12,8.7223446E12,2.6668748E12,6.5239725E11,4.2309496E12,0E0,4.527768E12,0E0,3.1671745E12,0E0,1.0439019E13,2.8688821E13,0E0,3.7219918E12,1.9867432E12,9.819902E12,0E0,0E0,0E0,0E0,0E0,0E0,0E0,0E0,0E0,0E0,0E0,0E0,0E0,0E0,0E0,0E0,0E0,0E0,0E0,0E0,0E0,0E0,0E0,0E0,0E0,0E0,0E0,0E0,0E0,0E0,0E0,0E0,0E0,0E0,0E0,0E0,0E0,0E0,0E0,0E0,0E0,0E0,0E0,0E0,0E0,0E0],"parents":[2147483647,0,0,1,1,2,2,3,3,4,4,5,5,6,6,7,7,8,8,9,9,10,10,11,11,12,12,14,14,15,15,16,16,17,17,18,18,19,19,20,20,21,21,22,22,23,23,24,24,25,25,26,26,27,27,28,28,29,29,30,30,31,31,32,32,33,33,34,34,35,35,36,36,37,37,38,38,39,39,40,40,41,41,42,42,43,43,45,45,47,47,49,49,50,50,52,52,53,53,54,54],"right_children":[2,4,6,8,10,12,14,16,18,20,22,24,26,-1,28,30,32,34,36,38,40,42,44,46,48,50,52,54,56,58,60,62,64,66,68,70,72,74,76,78,80,82,84,86,-1,88,-1,90,-1,92,94,-1,96,98,100,-1,-1,-1,-1,-1,-1,-1,-1,-1,-1,-1,-1,-1,-1,-1,-1,-1,-1,-1,-1,-1,-1,-1,-1,-1,-1,-1,-1,-1,-1,-1,-1,-1,-1,-1,-1,-1,-1,-1,-1,-1,-1,-1,-1,-1,-1],"split_conditions":[2.5785E3,1.5835E3,5.618E3,1.0485E3,3.5E0,2.5E0,5.649E3,1.7865E3,2.4345E3,1.8635E3,2.5E0,3.517E3,5.5E0,9.362003E5,1.17245E4,2.465E2,2.003E3,2.238E3,2.532E3,4E0,1.8965E3,9.72E2,2.7905E3,3.4895E3,1.847E3,3.928E3,2.887E3,7.525E2,6.225E2,2.55E1,3.09E2,1.8855E3,2.0585E3,2.1885E3,2.338E3,4E0,2.733E3,1.4645E3,5.68E2,1.8845E3,5.255E2,5.595E2,2.707E3,2.721E3,-4.2501266E4,9.145E2,-3.74046E4,4.5E0,5.467224E5,2.5E0,5.355E2,6.365488E3,7.5E1,4.82E2,1.9835E3,1.1463965E5,4.7952834E5,-4.430066E3,7.263647E3,2.781188E4,1.1553493E4,1.7771896E4,4.4842594E4,-6.299845E3,1.7259822E4,2.268694E4,7.084096E4,-2.8104395E4,4.8235137E3,7.077109E4,1.52652E5,-2.2124673E2,4.602062E4,4.3060246E4,8.707987E3,5.126922E4,1.3278589E5,1.0904814E5,2.78998E5,1.1424452E5,4.5801906E4,6.4611613E4,2.0631584E5,3.510498E4,8.528941E4,2.8667438E4,1.3305867E5,6.1629637E4,1.943616E5,1.8693888E5,-6.134475E3,2.0022336E5,5.2356586E4,4.633598E4,1.5375569E5,2.7314875E4,2.620267E5,4.0081254E4,1.0835633E5,2.5208878E5,7.52459E4],"split_indices":[1,1,1,1,0,2,1,3,3,3,2,1,2,0,1,3,3,3,3,2,3,3,3,1,3,1,1,3,3,3,3,3,3,3,3,2,3,3,4,3,4,4,3,3,0,3,0,0,0,0,4,0,4,4,3,0,0,0,0,0,0,0,0,0,0,0,0,0,0,0,0,0,0,0,0,0,0,0,0,0,0,0,0,0,0,0,0,0,0,0,0,0,0,0,0,0,0,0,0,0,0],"split_type":[0,0,0,0,0,0,0,0,0,0,0,0,0,0,0,0,0,0,0,0,0,0,0,0,0,0,0,0,0,0,0,0,0,0,0,0,0,0,0,0,0,0,0,0,0,0,0,0,0,0,0,0,0,0,0,0,0,0,0,0,0,0,0,0,0,0,0,0,0,0,0,0,0,0,0,0,0,0,0,0,0,0,0,0,0,0,0,0,0,0,0,0,0,0,0,0,0,0,0,0,0],"sum_hessian":[2.784E3,2.322E3,4.62E2,1.66E3,6.62E2,4.2E2,4.2E1,1.074E3,5.86E2,1.9E2,4.72E2,2.4E1,3.96E2,1E0,4.1E1,7.3E2,3.44E2,4.93E2,9.3E1,1E2,9E1,3.5E1,4.37E2,1.6E1,8E0,3.86E2,1E1,3.6E1,5E0,1.39E2,5.91E2,6.6E1,2.78E2,4.67E2,2.6E1,3E1,6.3E1,7.6E1,2.4E1,8E0,8.2E1,1.2E1,2.3E1,4.33E2,4E0,1.5E1,1E0,4E0,4E0,2.85E2,1.01E2,1E0,9E0,2E1,1.6E1,1E0,4E0,8E0,1.31E2,4.9E1,5.42E2,3.8E1,2.8E1,2.4E1,2.54E2,4.58E2,9E0,1.5E1,1.1E1,2.3E1,7E0,4.1E1,2.2E1,5E1,2.6E1,2E1,4E0,5E0,3E0,4.9E1,3.3E1,1.1E1,1E0,2E1,3E0,4.3E2,3E0,5E0,1E1,3E0,1E0,4E0,2.81E2,5E1,5.1E1,1E0,8E0,1E1,1E1,1E1,6E0],"tree_param":{"num_deleted":"0","num_feature":"6","num_nodes":"101","size_leaf_vector":"0"}},{"base_weights":[3.3014534E5,2.8275972E5,1.5369142E6,1.982388E5,5.9683456E5,6.6518894E5,2.0631269E6,1.3484203E5,2.9595625E5,9.3647206E5,4.0097322E5,5.427153E5,1.289166E6,1.7061091E6,4.7775435E6,9.415232E4,1.6170598E5,2.3107131E5,4.0826044E5,5.670608E5,1.3337382E6,1.493585E6,3.7206225E5,-2.4577541E4,5.768083E5,8.177725E4,1.5142882E6,1.3439328E6,3.1643395E6,2.6091665E6,8.893903E6,5.8866574E4,1.10124305E5,1.472111E5,2.610549E5,4.6540275E5,2.1754073E5,7.927634E5,3.080644E5,7.6567544E5,4.2621457E4,1.2294711E6,3.5027168E6,3.778693E5,2.3105838E6,2.6117844E5,5.0039128E5,5.9251562E4,-9.6117875E4,3.3723597E5,6.76724E5,1.4683206E6,-1.052788E6,4.0443918E6,1.2993988E6,3.0272032E6,2.5949125E5,7.399514E4,1.7887977E4,8.5929695E4,1.3862077E5,1.5618177E5,3.1774607E4,6.461491E5,8.732136E4,1.3657945E5,5.309479E5,1.8510616E5,2.814957E5,1.4237156E6,6.58758E5,2.3832067E5,7.4255294E5,4.3684425E5,2.0331456E6,1.7497892E5,-2.528271E5,1.4295529E6,4.91489E5,2.91755E4,6.006067E5,3.3804685E6,4.7050425E5,2.741266E5,-6.459307E5,1.7297244E5,6.019749E5,3.9016756E5,1.3383094E5,2.8572225E5,7.694621E5,8.6723225E5,2.111956E6,4.657668E6,1.6741341E6,1.917084E6,-5.85671E5],"categories":[],"categories_nodes":[],"categories_segments":[],"categories_sizes":[],"default_left":[1,1,1,1,1,1,1,1,1,1,1,1,1,1,1,1,1,1,1,1,1,1,1,1,1,0,0,1,1,1,0,1,1,1,1,1,1,1,1,1,1,1,0,1,1,1,1,0,0,1,1,1,0,1,1,0,0,0,0,0,0,0,0,0,0,0,0,0,0,0,0,0,0,0,0,0,0,0,0,0,0,0,0,0,0,0,0,0,0,0,0,0,0,0,0,0,0],"id":17,"left_children":[1,3,5,7,9,11,13,15,17,19,21,23,25,27,29,31,33,35,37,39,41,43,45,47,49,-1,-1,51,53,55,-1,57,59,61,63,65,67,69,71,73,75,77,-1,79,81,83,85,-1,-1,87,89,91,-1,93,95,-1,-1,-1,-1,-1,-1,-1,-1,-1,-1,-1,-1,-1,-1,-1,-1,-1,-1,-1,-1,-1,-1,-1,-1,-1,-1,-1,-1,-1,-1,-1,-1,-1,-1,-1,-1,-1,-1,-1,-1,-1,-1],"loss_changes":[1.5882152E14,7.105124E13,4.6792478E13,1.3056264E13,3.7408913E13,2.4336002E12,5.4840156E13,1.3883E12,5.961037E12,2.9621903E13,1.0879312E13,7.1044275E11,1.507026E12,2.69074E13,3.927506E13,2.8263527E11,1.07329094E12,1.5760265E12,1.1429055E13,1.1320951E13,1.8082702E13,7.3307437E12,4.9065933E12,2.3686621E10,5.856433E11,0E0,0E0,1.6153859E13,1.2798415E13,5.10797E12,0E0,9.9107865E10,2.3077821E11,6.950643E11,6.433244E12,5.309601E11,9.892182E11,4.3042787E12,7.1563257E12,3.2037747E13,1.2564887E12,1.347244E13,0E0,3.7081265E11,8.2528405E12,2.4321804E12,5.317312E12,0E0,0E0,7.6982125E10,6.141447E11,1.635188E13,0E0,2.3778013E12,6.94468E12,0E0,0E0,0E0,0E0,0E0,0E0,0E0,0E0,0E0,0E0,0E0,0E0,0E0,0E0,0E0,0E0,0E0,0E0,0E0,0E0,0E0,0E0,0E0,0E0,0E0,0E0,0E0,0E0,0E0,0E0,0E0,0E0,0E0,0E0,0E0,0E0,0E0,0E0,0E0,0E0,0E0,0E0],"parents":[2147483647,0,0,1,1,2,2,3,3,4,4,5,5,6,6,7,7,8,8,9,9,10,10,11,11,12,12,13,13,14,14,15,15,16,16,17,17,18,18,19,19,20,20,21,21,22,22,23,23,24,24,27,27,28,28,29,29,31,31,32,32,33,33,34,34,35,35,36,36,37,37,38,38,39,39,40,40,41,41,43,43,44,44,45,45,46,46,49,49,50,50,51,51,53,53,54,54],"right_children":[2,4,6,8,10,12,14,16,18,20,22,24,26,28,30,32,34,36,38,40,42,44,46,48,50,-1,-1,52,54,56,-1,58,60,62,64,66,68,70,72,74,76,78,-1,80,82,84,86,-1,-1,88,90,92,-1,94,96,-1,-1,-1,-1,-1,-1,-1,-1,-1,-1,-1,-1,-1,-1,-1,-1,-1,-1,-1,-1,-1,-1,-1,-1,-1,-1,-1,-1,-1,-1,-1,-1,-1,-1,-1,-1,-1,-1,-1,-1,-1,-1],"split_conditions":[4.4535E3,2.2085E3,6.31E2,1.2145E3,4.5E0,1.0049E4,4E0,7.46E2,1.822E3,1.773E3,2.5E0,1.74E2,5.105E2,6.699E3,2.291E3,7.57E2,2.428E3,2.45E1,2.0025E3,1.084E3,3.92E3,2.164E3,3.0585E3,6E0,5.5E0,8.177725E3,1.5142883E5,2.7975E3,1.9565E3,1.595E3,8.893903E5,6.625E2,6.305E2,2.235E3,2.546E3,7.9E1,1.8345E3,3.17E2,4E0,9.285E2,2.6395E3,2.593E3,3.502717E5,3.415E2,5.5E0,2.712E3,7.615E2,5.9251562E3,-9.611788E3,5.896E3,5.1085E3,1.858E3,-1.05278805E5,8E0,8.5975E3,3.0272034E5,2.5949125E4,7.399514E3,1.7887977E3,8.59297E3,1.3862077E4,1.5618177E4,3.1774607E3,6.4614914E4,8.732136E3,1.3657945E4,5.309479E4,1.8510615E4,2.8149568E4,1.4237156E5,6.5875805E4,2.3832068E4,7.42553E4,4.3684426E4,2.0331456E5,1.7497893E4,-2.5282709E4,1.429553E5,4.9148902E4,2.91755E3,6.0060668E4,3.3804684E5,4.7050426E4,2.741266E4,-6.459307E4,1.7297244E4,6.019749E4,3.9016758E4,1.3383094E4,2.8572225E4,7.694621E4,8.672323E4,2.1119561E5,4.657668E5,1.6741342E5,1.917084E5,-5.85671E4],"split_indices":[1,1,3,1,0,1,2,1,3,3,2,3,3,1,3,3,3,4,3,3,1,3,1,0,0,0,0,3,3,3,0,1,1,3,3,3,1,4,2,3,1,3,0,4,0,3,3,0,0,1,1,3,0,0,1,0,0,0,0,0,0,0,0,0,0,0,0,0,0,0,0,0,0,0,0,0,0,0,0,0,0,0,0,0,0,0,0,0,0,0,0,0,0,0,0,0,0],"split_type":[0,0,0,0,0,0,0,0,0,0,0,0,0,0,0,0,0,0,0,0,0,0,0,0,0,0,0,0,0,0,0,0,0,0,0,0,0,0,0,0,0,0,0,0,0,0,0,0,0,0,0,0,0,0,0,0,0,0,0,0,0,0,0,0,0,0,0,0,0,0,0,0,0,0,0,0,0,0,0,0,0,0,0,0,0,0,0,0,0,0,0,0,0,0,0,0,0],"sum_hessian":[2.784E3,2.68E3,1.04E2,2.113E3,5.67E2,4E1,6.4E1,1.283E3,8.3E2,2.06E2,3.61E2,3.5E1,5E0,5.8E1,6E0,5.12E2,7.71E2,5.28E2,3.02E2,1.08E2,9.8E1,8E0,3.53E2,2E0,3.3E1,1E0,4E0,4.8E1,1E1,5E0,1E0,1.61E2,3.51E2,6.75E2,9.6E1,2.7E1,5.01E2,6.1E1,2.41E2,7.8E1,3E1,9.5E1,3E0,4E0,4E0,1.91E2,1.62E2,1E0,1E0,1.1E1,2.2E1,4.6E1,2E0,6E0,4E0,4E0,1E0,1.17E2,4.4E1,1.92E2,1.59E2,6.26E2,4.9E1,2.9E1,6.7E1,5E0,2.2E1,3.35E2,1.66E2,9E0,5.2E1,2.09E2,3.2E1,6.3E1,1.5E1,2.1E1,9E0,7.4E1,2.1E1,2E0,2E0,2E0,2E0,1.89E2,2E0,3.9E1,1.23E2,8E0,3E0,5E0,1.7E1,2.5E1,2.1E1,4E0,2E0,3E0,1E0],"tree_param":{"num_deleted":"0","num_feature":"6","num_nodes":"97","size_leaf_vector":"0"}},{"base_weights":[2.9867638E5,2.5516017E5,1.4069452E6,1.6284231E5,4.9219166E5,1.1856114E6,3.3910562E6,1.1686388E5,2.3684695E5,9.362011E5,4.1126028E5,1.0460954E6,3.5155832E6,1.8902384E6,8.449208E6,7.325208E4,1.3539995E5,4.0669316E5,1.910715E5,7.238453E5,1.7112235E6,1.2079761E5,4.7165894E5,6.992358E5,1.7755064E6,4.9950435E6,1.8969574E6,2.2421442E5,2.3342148E6,1.05974945E5,2.9711963E4,1.0208418E5,1.7128595E5,2.3719827E5,6.531349E5,1.9832558E5,-4.3520322E5,5.35975E5,1.3335032E6,3.3754638E6,9.6895094E5,3.1171897E5,9.002835E4,8.723637E5,3.9586084E5,8.819589E5,9.5944125E4,4.7167435E6,9.662177E5,6.03245E4,2.7599712E5,2.6410782E6,2.4651675E5,4.8593387E4,2.685414E5,-1.1643137E5,7.4901805E4,4.2766418E4,1.1000542E5,7.122473E5,1.6678928E5,3.5653725E5,1.4609356E5,3.9075978E5,1.0924499E6,1.8575762E5,5.7900856E5,-2.3058216E5,-6.3117056E5,9.783283E4,6.911989E5,1.5726329E6,-6.254848E5,2.1792708E5,1.6957606E6,-8.935679E4,5.890313E5,8.450698E3,1.3594395E5,5.2112078E5,1.4755221E6,2.19855E5,5.7648856E5,5.366897E5,1.9018149E6,-3.53906E4,1.0329825E6,8.982421E4,1.7008719E6],"categories":[],"categories_nodes":[],"categories_segments":[],"categories_sizes":[],"default_left":[1,1,1,1,1,1,1,1,1,1,1,1,1,1,0,1,1,1,1,1,1,1,1,1,1,0,0,1,1,1,1,1,1,1,1,1,1,1,1,0,1,1,1,1,1,1,1,0,1,0,0,0,0,0,0,0,0,0,0,0,0,0,0,0,0,0,0,0,0,0,0,0,0,0,0,0,0,0,0,0,0,0,0,0,0,0,0,0,0],"id":18,"left_children":[1,3,5,7,9,11,13,15,17,19,21,23,25,27,-1,29,31,33,35,37,39,41,43,45,47,-1,-1,49,51,53,55,57,59,61,63,65,67,69,71,-1,73,75,77,79,81,83,85,-1,87,-1,-1,-1,-1,-1,-1,-1,-1,-1,-1,-1,-1,-1,-1,-1,-1,-1,-1,-1,-1,-1,-1,-1,-1,-1,-1,-1,-1,-1,-1,-1,-1,-1,-1,-1,-1,-1,-1,-1,-1],"loss_changes":[1.33955E14,5.858614E13,4.2090394E13,6.5427745E12,2.6601618E13,2.7528928E13,5.994262E13,9.544925E11,5.6678595E12,1.7688101E13,1.1118269E13,2.2034793E13,2.498077E12,6.133708E12,0E0,5.0691467E11,9.8201135E11,6.361293E12,2.7394467E12,9.822649E12,2.6377022E13,6.2400666E11,1.5661061E13,6.9704404E12,6.447158E13,0E0,0E0,8.810594E9,3.833401E12,1.8899272E12,1.032371E12,2.00159E11,8.566457E11,9.6991235E11,6.83483E12,2.657832E12,1.351566E11,4.82911E12,1.0821145E13,0E0,9.455776E12,1.720983E12,3.6218287E11,1.6815053E13,1.4020493E13,1.6233433E13,2.0056087E12,0E0,1.5299527E13,0E0,0E0,0E0,0E0,0E0,0E0,0E0,0E0,0E0,0E0,0E0,0E0,0E0,0E0,0E0,0E0,0E0,0E0,0E0,0E0,0E0,0E0,0E0,0E0,0E0,0E0,0E0,0E0,